{"learner":{"attributes":{"best_iteration":"277","best_score":"0.10515333279624371"},"feature_names":[],"feature_types":[],"gradient_booster":{"model":{"gbtree_model_param":{"num_parallel_tree":"1","num_trees":"328"},"iteration_indptr":[0,1,2,3,4,5,6,7,8,9,10,11,12,13,14,15,16,17,18,19,20,21,22,23,24,25,26,27,28,29,30,31,32,33,34,35,36,37,38,39,40,41,42,43,44,45,46,47,48,49,50,51,52,53,54,55,56,57,58,59,60,61,62,63,64,65,66,67,68,69,70,71,72,73,74,75,76,77,78,79,80,81,82,83,84,85,86,87,88,89,90,91,92,93,94,95,96,97,98,99,100,101,102,103,104,105,106,107,108,109,110,111,112,113,114,115,116,117,118,119,120,121,122,123,124,125,126,127,128,129,130,131,132,133,134,135,136,137,138,139,140,141,142,143,144,145,146,147,148,149,150,151,152,153,154,155,156,157,158,159,160,161,162,163,164,165,166,167,168,169,170,171,172,173,174,175,176,177,178,179,180,181,182,183,184,185,186,187,188,189,190,191,192,193,194,195,196,197,198,199,200,201,202,203,204,205,206,207,208,209,210,211,212,213,214,215,216,217,218,219,220,221,222,223,224,225,226,227,228,229,230,231,232,233,234,235,236,237,238,239,240,241,242,243,244,245,246,247,248,249,250,251,252,253,254,255,256,257,258,259,260,261,262,263,264,265,266,267,268,269,270,271,272,273,274,275,276,277,278,279,280,281,282,283,284,285,286,287,288,289,290,291,292,293,294,295,296,297,298,299,300,301,302,303,304,305,306,307,308,309,310,311,312,313,314,315,316,317,318,319,320,321,322,323,324,325,326,327,328],"tree_info":[0,0,0,0,0,0,0,0,0,0,0,0,0,0,0,0,0,0,0,0,0,0,0,0,0,0,0,0,0,0,0,0,0,0,0,0,0,0,0,0,0,0,0,0,0,0,0,0,0,0,0,0,0,0,0,0,0,0,0,0,0,0,0,0,0,0,0,0,0,0,0,0,0,0,0,0,0,0,0,0,0,0,0,0,0,0,0,0,0,0,0,0,0,0,0,0,0,0,0,0,0,0,0,0,0,0,0,0,0,0,0,0,0,0,0,0,0,0,0,0,0,0,0,0,0,0,0,0,0,0,0,0,0,0,0,0,0,0,0,0,0,0,0,0,0,0,0,0,0,0,0,0,0,0,0,0,0,0,0,0,0,0,0,0,0,0,0,0,0,0,0,0,0,0,0,0,0,0,0,0,0,0,0,0,0,0,0,0,0,0,0,0,0,0,0,0,0,0,0,0,0,0,0,0,0,0,0,0,0,0,0,0,0,0,0,0,0,0,0,0,0,0,0,0,0,0,0,0,0,0,0,0,0,0,0,0,0,0,0,0,0,0,0,0,0,0,0,0,0,0,0,0,0,0,0,0,0,0,0,0,0,0,0,0,0,0,0,0,0,0,0,0,0,0,0,0,0,0,0,0,0,0,0,0,0,0,0,0,0,0,0,0,0,0,0,0,0,0,0,0,0,0,0,0,0,0,0,0,0,0,0,0,0,0,0,0,0,0,0,0,0,0,0,0,0,0,0,0],"trees":[{"base_weights":[3.674846E-9,-2.753708E-1,1.3348209E0,-3.6432642E-1,1.7592095E-1,1.706266E-1,2.9067695E0,-3.8547358E-1,-1.832318E-1,-2.2240968E-1,7.104532E-1,3.3602584E-2,4.4608808E-1,2.1667461E0,4.1422305E0,-3.9162296E-1,-3.238971E-1,-3.329096E-1,9.633605E-3,-2.7102646E-1,-1.5290812E-1,3.745105E-1,9.442308E-1,-3.800083E-2,1.3717778E-1,3.2689446E-1,5.7636386E-1,1.6898214E0,2.579993E0,3.6748285E0,4.885825E0,-3.9308365E-2,-3.7342817E-1,-3.752491E-1,-2.3658648E-1,-3.510471E-1,-2.9588667E-1,-4.310745E-2,2.4620055E-1,-3.1387302E-1,-2.4535404E-1,-1.797309E-1,-8.440718E-2,4.8319566E-1,1.5347745E-1,1.2793231E0,8.2846403E-1,-7.6964594E-2,7.651773E-2,1.6427176E-1,1.9182377E-2,-2.5770336E-1,3.4019879E-1,5.109369E-1,7.0746356E-1,1.3889813E0,1.9777154E0,2.4416187E0,3.1150498E0,3.7584758E0,2.2274039E0,4.911696E0,1.826201E-1,-3.8836993E-2,-3.4707987E-1,-3.796625E-2,-3.5831824E-2,-2.8440842E-1,-1.7972139E-1,-3.632125E-2,-3.400474E-2,-3.0748373E-2,-2.60905E-1,-1.24391995E-1,5.9392747E-2,1.5014996E-1,4.7437721E-1,-3.0608144E-1,-3.437364E-2,-2.6288715E-1,-2.1489207E-1,-2.1789075E-1,-1.5233679E-1,-1.464485E-1,-2.79684E-2,1.0137681E0,4.5682964E-1,8.597036E-2,3.7674457E-1,1.9559019E0,1.1255829E0,6.848561E-1,1.1725122E0,-1.226921E-1,-4.6606503E-2,1.3432876E-3,1.3942401E-1,1.2640959E-1,2.1384194E-1,9.281869E-2,-6.52508E-2,-3.291064E-2,1.1356792E-3,3.8512352E-1,2.8051004E-1,5.7337373E-1,4.2977276E-1,7.550175E-2,6.350962E-1,1.1751463E0,1.6184915E0,2.031677E0,8.8270324E-1,2.4938533E0,1.4093368E0,2.5356874E0,3.5252888E0,3.4202473E0,3.9754746E0,2.4044263E0,1.3336972E0,4.6869293E-1,5.327202E-1,-3.580532E-2,-3.242172E-2,-2.0647682E-2,-2.9180342E-2,-2.6193475E-2,-1.4081533E-2,-2.6632478E-2,-1.23708565E-2,-1.5848454E-2,-5.246045E-3,-8.470959E-3,1.8082444E-2,7.5045973E-3,2.994645E-2,3.0616706E-2,7.400646E-2,-3.2312486E-2,-2.9593188E-2,-2.9491205E-2,-2.5618112E-2,-2.4075856E-2,-2.0315833E-2,-3.9050076E-3,-2.2119813E-2,-1.8018309E-2,-1.2782517E-2,-1.9725535E-2,-1.2404959E-2,-6.388258E-3,2.8001606E-3,5.594356E-2,1.4069298E-1,3.329849E-2,5.2727904E-2,1.7261415E-3,3.440627E-2,2.4234712E-2,6.693347E-2,1.491518E-1,2.2584574E-1,9.3134575E-2,1.331862E-1,5.2163035E-2,8.8677146E-2,8.340751E-2,1.364219E-1,-1.1176399E-2,-2.682752E-2,-3.2976735E-3,-1.359276E-2,2.1619669E-3,-2.3558276E-2,1.6139105E-2,-5.7211365E-3,7.3745884E-3,1.631103E-2,2.595192E-2,1.6242499E-2,5.2832356E-3,1.7255781E-2,-2.7639344E-3,-2.1474352E-2,3.2861747E-2,4.476263E-2,3.1642172E-2,1.9720256E-2,5.829103E-2,7.970921E-3,4.3810986E-2,1.26350345E-2,3.438643E-2,6.438544E-2,9.872169E-2,1.4280473E-1,1.7247416E-1,7.434985E-2,1.9435805E-1,2.771603E-1,6.0243238E-2,1.22003995E-1,2.3029283E-1,2.689908E-1,6.211877E-2,1.573591E-1,2.2131108E-1,2.814957E-1,3.5876164E-1,1.5080121E-1,1.6203763E-1,3.463462E-1,3.5161138E-1,4.1837326E-1,1.3028854E-1,2.5307682E-1,3.9378133E-2,1.9488111E-1],"categories":[],"categories_nodes":[],"categories_segments":[],"categories_sizes":[],"default_left":[0,0,0,0,0,0,0,0,0,0,0,0,0,0,0,0,0,0,0,0,0,0,0,0,0,0,0,0,0,0,0,0,0,0,0,0,0,0,0,0,0,0,0,0,0,0,0,0,0,0,0,0,0,0,0,0,0,0,0,0,0,0,0,0,0,0,0,0,0,0,0,0,0,0,0,0,0,0,0,0,0,0,0,0,0,0,0,0,0,0,0,0,0,0,0,0,0,0,0,0,0,0,0,0,0,0,0,0,0,0,0,0,0,0,0,0,0,0,0,0,0,0,0,0,0,0,0,0,0,0,0,0,0,0,0,0,0,0,0,0,0,0,0,0,0,0,0,0,0,0,0,0,0,0,0,0,0,0,0,0,0,0,0,0,0,0,0,0,0,0,0,0,0,0,0,0,0,0,0,0,0,0,0,0,0,0,0,0,0,0,0,0,0,0,0,0,0,0,0,0,0,0,0,0,0,0,0,0,0,0,0,0,0,0,0,0,0,0,0],"id":0,"left_children":[1,3,5,7,9,11,13,15,17,19,21,23,25,27,29,31,33,35,37,39,41,43,45,47,49,51,53,55,57,59,61,-1,63,65,67,69,71,73,75,77,79,81,83,85,87,89,91,93,95,97,99,101,103,105,107,109,111,113,115,117,119,121,-1,-1,123,-1,-1,125,127,-1,-1,-1,129,131,133,135,137,139,-1,141,143,145,147,149,151,153,155,157,159,161,163,165,167,169,171,173,175,177,179,181,183,-1,-1,185,187,189,191,-1,193,195,197,199,201,203,205,207,209,211,213,215,217,-1,-1,-1,-1,-1,-1,-1,-1,-1,-1,-1,-1,-1,-1,-1,-1,-1,-1,-1,-1,-1,-1,-1,-1,-1,-1,-1,-1,-1,-1,-1,-1,-1,-1,-1,-1,-1,-1,-1,-1,-1,-1,-1,-1,-1,-1,-1,-1,-1,-1,-1,-1,-1,-1,-1,-1,-1,-1,-1,-1,-1,-1,-1,-1,-1,-1,-1,-1,-1,-1,-1,-1,-1,-1,-1,-1,-1,-1,-1,-1,-1,-1,-1,-1,-1,-1,-1,-1,-1,-1,-1,-1,-1,-1,-1,-1,-1,-1],"loss_changes":[2.2655953E4,2.05131E3,1.9290098E4,1.6338916E2,1.7916716E3,2.2860547E2,4.0915273E3,1.4345215E1,1.2889734E2,1.62518E1,2.818258E2,3.0011715E1,3.1054047E1,5.4886523E2,5.655957E2,7.7734375E-1,1.5496124E1,1.5843201E0,2.4365307E1,3.042511E0,3.6357155E0,3.538382E1,8.110278E1,1.0683633E1,5.284626E0,8.277565E0,7.872864E0,1.1036548E2,1.0359863E2,1.1693848E2,4.208496E1,0E0,8.895569E-1,2.7374268E-2,3.4569092E0,1.015625E-1,2.5771332E-1,1.3313084E1,7.7310505E0,1.4120483E-1,8.9312744E-1,1.4585266E0,1.9602656E0,1.3372086E1,7.3228006E0,5.4175903E1,7.7113525E1,2.473606E0,2.8750112E0,2.4973106E0,1.9334342E0,4.648186E-1,2.6539078E0,3.0171509E0,6.1138916E-1,2.9605713E1,3.750049E1,6.1083008E1,6.355249E1,5.811035E1,6.1273804E0,3.4708008E1,0E0,0E0,1.2249756E-1,0E0,0E0,3.4258652E-1,1.8566837E0,0E0,0E0,0E0,1.261797E-1,2.1767101E0,1.238682E1,2.803484E0,4.4660015E0,5.1239014E-2,0E0,1.6584015E-1,1.4988518E-1,3.427086E-1,5.462208E-1,2.7938128E-1,5.947733E-1,7.429714E0,8.060608E0,6.661764E0,4.281328E0,1.0541168E1,1.6549316E1,3.628534E1,2.8901855E1,1.1027708E0,1.3042502E0,1.3406059E0,1.4389863E0,1.4665604E0,1.3223763E0,5.201701E-1,8.093473E-1,0E0,0E0,1.9189987E0,1.271904E0,1.6530609E0,6.630707E-1,0E0,1.1528778E-1,1.4559479E1,2.725885E1,3.5875244E1,2.3850174E0,3.643994E1,6.7899094E0,5.4813843E0,1.6718506E1,2.464502E1,4.163672E1,3.3828735E0,6.170458E0,0E0,0E0,0E0,0E0,0E0,0E0,0E0,0E0,0E0,0E0,0E0,0E0,0E0,0E0,0E0,0E0,0E0,0E0,0E0,0E0,0E0,0E0,0E0,0E0,0E0,0E0,0E0,0E0,0E0,0E0,0E0,0E0,0E0,0E0,0E0,0E0,0E0,0E0,0E0,0E0,0E0,0E0,0E0,0E0,0E0,0E0,0E0,0E0,0E0,0E0,0E0,0E0,0E0,0E0,0E0,0E0,0E0,0E0,0E0,0E0,0E0,0E0,0E0,0E0,0E0,0E0,0E0,0E0,0E0,0E0,0E0,0E0,0E0,0E0,0E0,0E0,0E0,0E0,0E0,0E0,0E0,0E0,0E0,0E0,0E0,0E0,0E0,0E0,0E0,0E0,0E0,0E0,0E0,0E0,0E0,0E0,0E0,0E0],"parents":[2147483647,0,0,1,1,2,2,3,3,4,4,5,5,6,6,7,7,8,8,9,9,10,10,11,11,12,12,13,13,14,14,15,15,16,16,17,17,18,18,19,19,20,20,21,21,22,22,23,23,24,24,25,25,26,26,27,27,28,28,29,29,30,30,32,32,33,33,34,34,35,35,36,36,37,37,38,38,39,39,40,40,41,41,42,42,43,43,44,44,45,45,46,46,47,47,48,48,49,49,50,50,51,51,52,52,53,53,54,54,55,55,56,56,57,57,58,58,59,59,60,60,61,61,64,64,67,67,68,68,72,72,73,73,74,74,75,75,76,76,77,77,79,79,80,80,81,81,82,82,83,83,84,84,85,85,86,86,87,87,88,88,89,89,90,90,91,91,92,92,93,93,94,94,95,95,96,96,97,97,98,98,99,99,100,100,103,103,104,104,105,105,106,106,108,108,109,109,110,110,111,111,112,112,113,113,114,114,115,115,116,116,117,117,118,118,119,119,120,120],"right_children":[2,4,6,8,10,12,14,16,18,20,22,24,26,28,30,32,34,36,38,40,42,44,46,48,50,52,54,56,58,60,62,-1,64,66,68,70,72,74,76,78,80,82,84,86,88,90,92,94,96,98,100,102,104,106,108,110,112,114,116,118,120,122,-1,-1,124,-1,-1,126,128,-1,-1,-1,130,132,134,136,138,140,-1,142,144,146,148,150,152,154,156,158,160,162,164,166,168,170,172,174,176,178,180,182,184,-1,-1,186,188,190,192,-1,194,196,198,200,202,204,206,208,210,212,214,216,218,-1,-1,-1,-1,-1,-1,-1,-1,-1,-1,-1,-1,-1,-1,-1,-1,-1,-1,-1,-1,-1,-1,-1,-1,-1,-1,-1,-1,-1,-1,-1,-1,-1,-1,-1,-1,-1,-1,-1,-1,-1,-1,-1,-1,-1,-1,-1,-1,-1,-1,-1,-1,-1,-1,-1,-1,-1,-1,-1,-1,-1,-1,-1,-1,-1,-1,-1,-1,-1,-1,-1,-1,-1,-1,-1,-1,-1,-1,-1,-1,-1,-1,-1,-1,-1,-1,-1,-1,-1,-1,-1,-1,-1,-1,-1,-1,-1,-1],"split_conditions":[2.1645001E2,7.0275E1,1E0,2.8025E1,1E0,4.59225E2,4.3445E2,1.0375E1,1E0,2.74075E2,1.18275E2,3.39475E2,5.651E2,2.99175E2,4.41E2,2.6E0,1E0,1.36175E2,2.27675E2,1.4005E2,5.43275E2,-1.8369701E-16,-7.944973E-1,5.478E2,-1.9970155E-1,9.7905E2,5.488E2,-6.700888E-1,2.7625E2,2.5E-3,5E-1,-3.9308365E-2,1E0,6.3425E1,1.9175001E1,5.7325E1,3.4145E2,3.0408374E2,5.5044376E1,6.358985E-1,1.582E2,2.3639126E3,1.47375E2,1.1796583E5,-6.174673E-1,1.8784647E5,4.48675E2,3.21425E2,8.3065E2,4.0655E2,4.88E1,5.8825E2,1E0,1E0,1E0,4.5155E2,1.2499999E-2,5E-1,-7.544038E-1,3.29175E2,1E0,5.488E2,1.826201E-1,-3.8836993E-2,7.1E0,-3.796625E-2,-3.5831824E-2,3.065E1,-6.3090664E-1,-3.632125E-2,-3.400474E-2,-3.0748373E-2,2.0601831E-1,1.19975006E2,-2.1652709E-1,4.23825E2,3.21425E2,9.5425E1,-3.437364E-2,8.8854755E2,1.848E2,8.5875E1,9.265E2,9.63E1,9.648E2,7.805E1,8.705E1,2.615E2,4.4475E1,1.47375E2,1.65525E2,6.8667597E-1,3.97624E4,4.8314747E-1,9.7627664E-1,9.798568E-1,7.5E-3,1.3659999E2,1E0,3.17725E2,5.33125E2,-3.291064E-2,1.1356792E-3,5.1505E2,6.7406946E-1,2E-2,2.5E-3,7.550175E-2,9.879E2,2.61375E2,1.5000001E-2,5.692E2,1.65025E2,-6.952253E-1,4.55775E2,4.02E2,1E0,9.8365E2,9.9835E2,-9.896398E-1,3.11025E2,4.6869293E-1,5.327202E-1,-3.580532E-2,-3.242172E-2,-2.0647682E-2,-2.9180342E-2,-2.6193475E-2,-1.4081533E-2,-2.6632478E-2,-1.23708565E-2,-1.5848454E-2,-5.246045E-3,-8.470959E-3,1.8082444E-2,7.5045973E-3,2.994645E-2,3.0616706E-2,7.400646E-2,-3.2312486E-2,-2.9593188E-2,-2.9491205E-2,-2.5618112E-2,-2.4075856E-2,-2.0315833E-2,-3.9050076E-3,-2.2119813E-2,-1.8018309E-2,-1.2782517E-2,-1.9725535E-2,-1.2404959E-2,-6.388258E-3,2.8001606E-3,5.594356E-2,1.4069298E-1,3.329849E-2,5.2727904E-2,1.7261415E-3,3.440627E-2,2.4234712E-2,6.693347E-2,1.491518E-1,2.2584574E-1,9.3134575E-2,1.331862E-1,5.2163035E-2,8.8677146E-2,8.340751E-2,1.364219E-1,-1.1176399E-2,-2.682752E-2,-3.2976735E-3,-1.359276E-2,2.1619669E-3,-2.3558276E-2,1.6139105E-2,-5.7211365E-3,7.3745884E-3,1.631103E-2,2.595192E-2,1.6242499E-2,5.2832356E-3,1.7255781E-2,-2.7639344E-3,-2.1474352E-2,3.2861747E-2,4.476263E-2,3.1642172E-2,1.9720256E-2,5.829103E-2,7.970921E-3,4.3810986E-2,1.26350345E-2,3.438643E-2,6.438544E-2,9.872169E-2,1.4280473E-1,1.7247416E-1,7.434985E-2,1.9435805E-1,2.771603E-1,6.0243238E-2,1.22003995E-1,2.3029283E-1,2.689908E-1,6.211877E-2,1.573591E-1,2.2131108E-1,2.814957E-1,3.5876164E-1,1.5080121E-1,1.6203763E-1,3.463462E-1,3.5161138E-1,4.1837326E-1,1.3028854E-1,2.5307682E-1,3.9378133E-2,1.9488111E-1],"split_indices":[44,44,33,44,33,44,44,44,33,3,44,44,44,44,9,44,33,3,3,3,3,39,36,3,37,17,9,37,9,15,16,0,33,3,44,3,3,40,40,37,44,40,44,8,37,8,3,3,4,44,27,3,35,35,35,3,15,16,37,9,16,9,0,0,44,0,0,27,37,0,0,0,37,3,37,3,3,3,0,40,3,27,4,7,4,3,44,3,9,44,44,36,10,37,36,36,15,7,35,9,3,0,0,44,36,15,15,0,17,44,15,3,7,37,3,44,45,17,17,37,9,0,0,0,0,0,0,0,0,0,0,0,0,0,0,0,0,0,0,0,0,0,0,0,0,0,0,0,0,0,0,0,0,0,0,0,0,0,0,0,0,0,0,0,0,0,0,0,0,0,0,0,0,0,0,0,0,0,0,0,0,0,0,0,0,0,0,0,0,0,0,0,0,0,0,0,0,0,0,0,0,0,0,0,0,0,0,0,0,0,0,0,0,0,0,0,0,0,0],"split_type":[0,0,0,0,0,0,0,0,0,0,0,0,0,0,0,0,0,0,0,0,0,0,0,0,0,0,0,0,0,0,0,0,0,0,0,0,0,0,0,0,0,0,0,0,0,0,0,0,0,0,0,0,0,0,0,0,0,0,0,0,0,0,0,0,0,0,0,0,0,0,0,0,0,0,0,0,0,0,0,0,0,0,0,0,0,0,0,0,0,0,0,0,0,0,0,0,0,0,0,0,0,0,0,0,0,0,0,0,0,0,0,0,0,0,0,0,0,0,0,0,0,0,0,0,0,0,0,0,0,0,0,0,0,0,0,0,0,0,0,0,0,0,0,0,0,0,0,0,0,0,0,0,0,0,0,0,0,0,0,0,0,0,0,0,0,0,0,0,0,0,0,0,0,0,0,0,0,0,0,0,0,0,0,0,0,0,0,0,0,0,0,0,0,0,0,0,0,0,0,0,0,0,0,0,0,0,0,0,0,0,0,0,0,0,0,0,0,0,0],"sum_hessian":[6.1635E4,5.1095E4,1.054E4,4.2682E4,8.413E3,6.056E3,4.484E3,3.8218E4,4.464E3,4.821E3,3.592E3,4.045E3,2.011E3,2.806E3,1.678E3,3.4743E4,3.475E3,2.513E3,1.951E3,2.835E3,1.986E3,1.475E3,2.117E3,2.392E3,1.653E3,1.052E3,9.59E2,1.305E3,1.501E3,1.034E3,6.44E2,3.2142E4,2.601E3,2.186E3,1.289E3,1.681E3,8.32E2,1.596E3,3.55E2,1.058E3,1.777E3,1.426E3,5.6E2,9.88E2,4.87E2,5.41E2,1.576E3,1.785E3,6.07E2,1.344E3,3.09E2,2.3E1,1.029E3,6.43E2,3.16E2,6.41E2,6.64E2,1.197E3,3.04E2,9.76E2,5.8E1,6.38E2,6E0,1.651E3,9.5E2,1.717E3,4.69E2,6.98E2,5.91E2,7.83E2,8.98E2,6.19E2,2.13E2,8.9E2,7.06E2,2.51E2,1.04E2,8.48E2,2.1E2,1.123E3,6.54E2,5.93E2,8.33E2,2.66E2,2.94E2,4.5E1,9.43E2,3.75E2,1.12E2,9.8E1,4.43E2,1.114E3,4.62E2,7.11E2,1.074E3,2.77E2,3.3E2,7.64E2,5.8E2,1.65E2,1.44E2,1.8E1,5E0,5.84E2,4.45E2,3.6E2,2.83E2,1.85E2,1.31E2,3.35E2,3.06E2,6.32E2,3.2E1,1.138E3,5.9E1,1.29E2,1.75E2,3.88E2,5.88E2,4.7E1,1.1E1,4.22E2,2.16E2,6.32E2,3.18E2,6.3E1,6.35E2,1.88E2,4.03E2,2.04E2,9E0,6.03E2,2.87E2,3.23E2,3.83E2,1.68E2,8.3E1,6.5E1,3.9E1,3.05E2,5.43E2,1.87E2,9.36E2,1.98E2,4.56E2,1.1E1,5.82E2,3.87E2,4.46E2,7.9E1,1.87E2,1.79E2,1.15E2,2.2E1,2.3E1,3.44E2,5.99E2,2.97E2,7.8E1,7.8E1,3.4E1,4.1E1,5.7E1,2.31E2,2.12E2,6.18E2,4.96E2,1.69E2,2.93E2,6.63E2,4.8E1,9.33E2,1.41E2,2.56E2,2.1E1,2.97E2,3.3E1,3.15E2,4.49E2,3.05E2,2.75E2,1.11E2,5.4E1,1.16E2,2.8E1,3.1E2,2.74E2,3.09E2,1.36E2,3.53E2,7E0,2.75E2,8E0,5E0,1.26E2,1.95E2,1.4E2,2.72E2,3.4E1,5.68E2,6.4E1,1.9E1,1.3E1,5.83E2,5.55E2,1.1E1,4.8E1,6.4E1,6.5E1,1.69E2,6E0,1E1,3.78E2,1.89E2,3.99E2,6E0,4.1E1,5E0,6E0],"tree_param":{"num_deleted":"0","num_feature":"48","num_nodes":"219","size_leaf_vector":"1"}},{"base_weights":[1.1535249E-4,-2.4781877E-1,1.2019408E0,-3.2790127E-1,1.5845764E-1,1.5362874E-1,2.61742E0,-3.4723046E-1,-1.6733186E-1,-2.002285E-1,6.397897E-1,3.0241907E-2,4.016752E-1,1.951095E0,3.729842E0,-3.5246488E-1,-2.9288742E-1,-3.0048272E-1,5.881481E-3,-2.255059E-1,-1.18389115E-1,3.8664284E-1,8.922992E-1,-3.184651E-2,1.2716715E-1,2.9429734E-1,5.190369E-1,1.5359225E0,2.3374743E0,3.2545688E0,4.2178764E0,-3.5360914E-2,-3.334436E-1,-3.3820875E-2,-2.1607511E-1,-3.1253678E-1,-2.669657E-1,-7.409623E-2,1.1066029E-1,-2.5776914E-1,-2.0273992E-1,-1.4081357E-1,-4.1182935E-2,4.8232538E-1,1.756917E-1,4.730461E-1,9.85525E-1,-7.614179E-2,2.6729893E-2,1.5067413E-1,1.9365277E-2,-2.3325698E-1,3.0630413E-1,4.5737964E-1,6.156911E-1,1.2681098E0,1.7903119E0,2.1380932E0,2.662479E0,3.0716803E0,3.8122504E0,4.2799425E0,2.0605698E0,-3.4855377E-2,-3.0673438E-1,-2.506527E-1,-1.5657696E-1,-3.292351E-2,-3.0297533E-1,-2.8229427E-1,-2.4051262E-1,-3.164662E-2,-1.6541074E-1,8.808769E-2,6.591065E-1,-2.749516E-1,-1.9709815E-1,-2.8106144E-1,-1.9470903E-1,-1.8619478E-1,-1.1666491E-1,-6.765631E-2,1.09210014E-1,2.985899E-1,5.865374E-1,4.1422956E-2,3.609891E-1,3.615758E-1,7.9907155E-1,1.0605223E0,5.1221395E-1,-1.1454584E-1,-3.9131284E-2,5.281109E-2,-1.2524739E-1,1.0670706E-1,1.8732828E-1,8.0364734E-2,-8.698344E-2,-2.979279E-2,1.0410392E-3,2.525742E-1,3.4674385E-1,3.8349223E-1,5.1209366E-1,6.266941E-1,1.5581463E-2,7.561734E-1,1.3429719E0,1.1645437E0,1.8758806E0,1.9892014E0,2.584528E0,3.2843962E0,2.3468075E0,3.1350791E0,1.9382991E0,4.126521E0,2.622596E0,4.026333E0,4.6856537E-1,1.2052033E-1,2.466388E-1,-3.2196723E-2,-2.8037509E-2,-2.70408E-2,-2.1026414E-2,-2.3581265E-2,-1.2128473E-2,-3.085714E-2,-2.8855188E-2,-2.852798E-2,-2.0222623E-2,-2.4498772E-2,-1.7770281E-2,1.763662E-2,-5.65504E-3,-2.0420467E-2,-1.0607119E-2,-2.5468299E-3,1.571052E-2,9.511495E-2,3.4667112E-2,-2.8372599E-2,-2.5042906E-2,-2.5119102E-2,-1.8902155E-2,-3.0004987E-2,-2.5090832E-2,-2.0987771E-2,-1.6346117E-2,-1.9034142E-2,5.2169147E-3,-8.703904E-3,-1.581488E-2,-1.1289547E-2,8.3757535E-4,2.9062668E-2,-4.0083835E-4,2.4105659E-2,5.4213196E-2,7.805035E-2,4.6349566E-2,1.9794349E-4,1.6731342E-2,6.292232E-2,2.6597051E-2,2.6514033E-2,5.791993E-2,5.7688344E-2,9.20436E-2,1.5574743E-1,9.587135E-2,4.2796466E-2,8.069339E-2,-1.0687591E-2,-2.4681395E-2,-2.7462656E-2,-3.5073105E-3,5.7161954E-4,9.630189E-3,-2.2708625E-2,-8.321172E-3,7.634278E-3,1.607735E-2,1.1150585E-2,2.2119606E-2,-2.0488912E-2,8.963267E-3,-1.7801909E-2,-5.773985E-4,-5.0888775E-4,2.711679E-2,2.7023098E-2,3.857889E-2,4.0651318E-2,2.4556827E-2,5.19389E-2,1.48061905E-2,5.5635132E-2,6.766785E-2,8.126378E-2,3.3555083E-2,1.4169638E-1,7.766133E-2,8.087514E-2,1.572582E-1,1.2700744E-1,1.9679072E-1,2.0541628E-1,1.3612856E-1,2.1497189E-1,2.7574927E-1,1.14390604E-1,3.3383992E-1,1.617136E-1,2.4361277E-1,3.280699E-1,2.7578428E-1,2.2158073E-1,4.3243483E-2,2.8908268E-1,4.2238784E-1,1.1387292E-1,2.9050228E-1,4.103194E-1,2.7311382E-1],"categories":[],"categories_nodes":[],"categories_segments":[],"categories_sizes":[],"default_left":[0,0,0,0,0,0,0,0,0,0,0,0,0,0,0,0,0,0,0,0,0,0,0,0,0,0,0,0,0,0,0,0,0,0,0,0,0,0,0,0,0,0,0,0,0,0,0,0,0,0,0,0,0,0,0,0,0,0,0,0,0,0,0,0,0,0,0,0,0,0,0,0,0,0,0,0,0,0,0,0,0,0,0,0,0,0,0,0,0,0,0,0,0,0,0,0,0,0,0,0,0,0,0,0,0,0,0,0,0,0,0,0,0,0,0,0,0,0,0,0,0,0,0,0,0,0,0,0,0,0,0,0,0,0,0,0,0,0,0,0,0,0,0,0,0,0,0,0,0,0,0,0,0,0,0,0,0,0,0,0,0,0,0,0,0,0,0,0,0,0,0,0,0,0,0,0,0,0,0,0,0,0,0,0,0,0,0,0,0,0,0,0,0,0,0,0,0,0,0,0,0,0,0,0,0,0,0,0,0,0,0,0,0,0,0,0,0,0,0,0,0,0,0,0,0,0,0],"id":1,"left_children":[1,3,5,7,9,11,13,15,17,19,21,23,25,27,29,31,33,35,37,39,41,43,45,47,49,51,53,55,57,59,61,-1,63,-1,65,67,69,71,73,75,77,79,81,83,85,87,89,91,93,95,97,99,101,103,105,107,109,111,113,115,117,119,121,-1,123,125,127,-1,129,131,133,135,137,139,141,143,145,147,149,151,153,155,157,159,161,163,165,167,169,171,173,175,177,179,181,183,185,187,189,-1,-1,191,193,195,197,199,-1,201,203,205,207,209,211,213,215,217,219,221,223,225,-1,-1,-1,-1,-1,-1,-1,-1,-1,-1,-1,-1,-1,-1,-1,-1,-1,-1,-1,-1,-1,-1,-1,-1,-1,-1,-1,-1,-1,-1,-1,-1,-1,-1,-1,-1,-1,-1,-1,-1,-1,-1,-1,-1,-1,-1,-1,-1,-1,-1,-1,-1,-1,-1,-1,-1,-1,-1,-1,-1,-1,-1,-1,-1,-1,-1,-1,-1,-1,-1,-1,-1,-1,-1,-1,-1,-1,-1,-1,-1,-1,-1,-1,-1,-1,-1,-1,-1,-1,-1,-1,-1,-1,-1,-1,-1,-1,-1,-1,-1,-1,-1,-1,-1,-1,-1,-1],"loss_changes":[1.8366195E4,1.6624929E3,1.5641006E4,1.3241602E2,1.4527812E3,1.8536633E2,3.3171582E3,1.0733398E1,1.0581714E2,9.948532E0,2.2932678E2,2.4352612E1,2.5202576E1,4.4669238E2,3.757168E2,6.381836E-1,1.1599487E1,9.645691E-1,1.672624E1,2.6529083E0,1.9678907E0,3.616632E1,6.980908E1,6.4030566E0,4.0009575E0,6.7414017E0,5.439453E0,9.0112305E1,8.839697E1,7.549512E1,1.01643555E2,0E0,6.958008E-1,0E0,2.5262108E0,2.0393372E-1,2.1310806E-1,4.3826985E0,1.0638137E1,1.5303802E0,1.3064117E0,9.4595337E-1,1.0345922E0,2.3471985E1,1.3967411E1,1.1667648E1,5.163745E1,1.9925184E0,4.22008E0,2.0702229E0,1.849359E0,3.8129807E-1,2.1504288E0,2.1888046E0,1.779602E0,2.4432129E1,3.4923096E1,5.501416E1,9.987598E1,4.0557617E1,6.656958E1,6.355078E1,5.7055893E0,0E0,2.0163727E-1,5.7108307E-1,1.2605419E0,0E0,9.597778E-3,4.5814514E-2,2.9826164E-2,4.0195303E0,8.047619E-1,6.5168405E0,2.7725773E0,1.8328094E-1,1.00624084E-1,3.8654327E-2,8.9754486E-1,3.1139278E-1,6.978235E-1,7.576636E-1,8.0221343E-1,6.16061E0,1.8420715E1,1.6234078E0,5.8476295E0,5.0301285E0,1.7071724E0,6.2660034E1,4.695141E0,6.726036E-1,6.7559195E-1,1.8592103E0,6.4891887E-1,9.596057E-1,1.7882996E0,4.9687767E-1,7.6783925E-1,0E0,0E0,2.1381264E0,1.6434021E0,7.0983124E-1,8.1542206E-1,8.9634705E-1,0E0,1.7935829E0,2.3121216E1,1.1213387E1,3.1396729E1,2.5063477E1,1.0843262E1,1.7218994E1,1.9979492E1,2.4626465E1,1.4503708E1,7.2785645E0,1.5969788E1,3.856836E1,0E0,0E0,0E0,0E0,0E0,0E0,0E0,0E0,0E0,0E0,0E0,0E0,0E0,0E0,0E0,0E0,0E0,0E0,0E0,0E0,0E0,0E0,0E0,0E0,0E0,0E0,0E0,0E0,0E0,0E0,0E0,0E0,0E0,0E0,0E0,0E0,0E0,0E0,0E0,0E0,0E0,0E0,0E0,0E0,0E0,0E0,0E0,0E0,0E0,0E0,0E0,0E0,0E0,0E0,0E0,0E0,0E0,0E0,0E0,0E0,0E0,0E0,0E0,0E0,0E0,0E0,0E0,0E0,0E0,0E0,0E0,0E0,0E0,0E0,0E0,0E0,0E0,0E0,0E0,0E0,0E0,0E0,0E0,0E0,0E0,0E0,0E0,0E0,0E0,0E0,0E0,0E0,0E0,0E0,0E0,0E0,0E0,0E0,0E0,0E0,0E0,0E0,0E0,0E0,0E0,0E0,0E0],"parents":[2147483647,0,0,1,1,2,2,3,3,4,4,5,5,6,6,7,7,8,8,9,9,10,10,11,11,12,12,13,13,14,14,15,15,16,16,17,17,18,18,19,19,20,20,21,21,22,22,23,23,24,24,25,25,26,26,27,27,28,28,29,29,30,30,32,32,34,34,35,35,36,36,37,37,38,38,39,39,40,40,41,41,42,42,43,43,44,44,45,45,46,46,47,47,48,48,49,49,50,50,51,51,52,52,53,53,54,54,55,55,56,56,57,57,58,58,59,59,60,60,61,61,62,62,64,64,65,65,66,66,68,68,69,69,70,70,71,71,72,72,73,73,74,74,75,75,76,76,77,77,78,78,79,79,80,80,81,81,82,82,83,83,84,84,85,85,86,86,87,87,88,88,89,89,90,90,91,91,92,92,93,93,94,94,95,95,96,96,97,97,98,98,101,101,102,102,103,103,104,104,105,105,107,107,108,108,109,109,110,110,111,111,112,112,113,113,114,114,115,115,116,116,117,117,118,118,119,119],"right_children":[2,4,6,8,10,12,14,16,18,20,22,24,26,28,30,32,34,36,38,40,42,44,46,48,50,52,54,56,58,60,62,-1,64,-1,66,68,70,72,74,76,78,80,82,84,86,88,90,92,94,96,98,100,102,104,106,108,110,112,114,116,118,120,122,-1,124,126,128,-1,130,132,134,136,138,140,142,144,146,148,150,152,154,156,158,160,162,164,166,168,170,172,174,176,178,180,182,184,186,188,190,-1,-1,192,194,196,198,200,-1,202,204,206,208,210,212,214,216,218,220,222,224,226,-1,-1,-1,-1,-1,-1,-1,-1,-1,-1,-1,-1,-1,-1,-1,-1,-1,-1,-1,-1,-1,-1,-1,-1,-1,-1,-1,-1,-1,-1,-1,-1,-1,-1,-1,-1,-1,-1,-1,-1,-1,-1,-1,-1,-1,-1,-1,-1,-1,-1,-1,-1,-1,-1,-1,-1,-1,-1,-1,-1,-1,-1,-1,-1,-1,-1,-1,-1,-1,-1,-1,-1,-1,-1,-1,-1,-1,-1,-1,-1,-1,-1,-1,-1,-1,-1,-1,-1,-1,-1,-1,-1,-1,-1,-1,-1,-1,-1,-1,-1,-1,-1,-1,-1,-1,-1,-1],"split_conditions":[2.1645001E2,7.0275E1,1E0,2.715E1,1E0,4.59225E2,4.3445E2,1.0375E1,1E0,3.9960922E5,1.3045E2,3.4319998E2,5.651E2,3.03625E2,5.41375E2,3.875E0,1E0,1.25E-1,4.85E1,1.07E2,2E-1,-1.8369701E-16,-7.0710677E-1,4.8994594E5,-1.9970155E-1,9.7905E2,6.525E2,-6.700888E-1,-5.331371E-1,-5.0743026E-1,2.5E-1,-3.5360914E-2,1E0,-3.3820875E-2,2.0375E1,3.9175E1,5.07E1,2.5881904E-1,4.5E-1,1.25E-1,2.738E2,1.53875E2,5.948885E5,-2.5881904E-1,9.659258E-1,1.892E2,2.5881904E-1,2.7205E2,-2.2072364E-1,1E0,4.85E1,5.48428E5,1E0,1E0,5.68E1,-8.660254E-1,2.746E2,4.02E2,3.425E1,2.5E-1,1.65E0,6.335E2,2.856E2,-3.4855377E-2,7.0710677E-1,7.0710677E-1,-6.3090664E-1,-3.292351E-2,5E-2,5.25E-1,4.7500002E-1,5.57757E4,8.660254E-1,-2.5881904E-1,2.824E2,5E-2,2.7605E2,8.8372034E-1,2.5E-2,1E0,-3.9629912E-1,5E-1,2.8365002E2,1.75E-1,9.7E1,2.5301843E3,7.79E1,4.0792762E5,-8.660254E-1,4.6E1,7.7989062E3,4.179029E-1,9.7382495E2,2.5E-2,9.8585E2,4.1632498E2,-2.5881904E-1,9.7705005E2,-1.6126573E-2,-2.979279E-2,1.0410392E-3,2.7705E2,4.9402502E2,3.3E0,2.5E-1,1E0,1.5581463E-2,5.245E1,2.5E-1,9.986E2,-5E-1,2.5E-1,-9.556633E-1,-4.275E0,2.7405E2,3.375E0,7.3175E1,9.94325E2,2.5749998E0,3.0749998E0,4.6856537E-1,1.2052033E-1,2.466388E-1,-3.2196723E-2,-2.8037509E-2,-2.70408E-2,-2.1026414E-2,-2.3581265E-2,-1.2128473E-2,-3.085714E-2,-2.8855188E-2,-2.852798E-2,-2.0222623E-2,-2.4498772E-2,-1.7770281E-2,1.763662E-2,-5.65504E-3,-2.0420467E-2,-1.0607119E-2,-2.5468299E-3,1.571052E-2,9.511495E-2,3.4667112E-2,-2.8372599E-2,-2.5042906E-2,-2.5119102E-2,-1.8902155E-2,-3.0004987E-2,-2.5090832E-2,-2.0987771E-2,-1.6346117E-2,-1.9034142E-2,5.2169147E-3,-8.703904E-3,-1.581488E-2,-1.1289547E-2,8.3757535E-4,2.9062668E-2,-4.0083835E-4,2.4105659E-2,5.4213196E-2,7.805035E-2,4.6349566E-2,1.9794349E-4,1.6731342E-2,6.292232E-2,2.6597051E-2,2.6514033E-2,5.791993E-2,5.7688344E-2,9.20436E-2,1.5574743E-1,9.587135E-2,4.2796466E-2,8.069339E-2,-1.0687591E-2,-2.4681395E-2,-2.7462656E-2,-3.5073105E-3,5.7161954E-4,9.630189E-3,-2.2708625E-2,-8.321172E-3,7.634278E-3,1.607735E-2,1.1150585E-2,2.2119606E-2,-2.0488912E-2,8.963267E-3,-1.7801909E-2,-5.773985E-4,-5.0888775E-4,2.711679E-2,2.7023098E-2,3.857889E-2,4.0651318E-2,2.4556827E-2,5.19389E-2,1.48061905E-2,5.5635132E-2,6.766785E-2,8.126378E-2,3.3555083E-2,1.4169638E-1,7.766133E-2,8.087514E-2,1.572582E-1,1.2700744E-1,1.9679072E-1,2.0541628E-1,1.3612856E-1,2.1497189E-1,2.7574927E-1,1.14390604E-1,3.3383992E-1,1.617136E-1,2.4361277E-1,3.280699E-1,2.7578428E-1,2.2158073E-1,4.3243483E-2,2.8908268E-1,4.2238784E-1,1.1387292E-1,2.9050228E-1,4.103194E-1,2.7311382E-1],"split_indices":[44,44,33,44,33,44,44,44,33,8,44,44,44,44,44,44,33,25,44,44,25,39,38,8,37,17,44,37,37,37,16,0,33,0,44,44,44,39,25,25,26,44,8,38,38,44,39,44,37,34,11,8,34,34,11,38,26,44,11,16,30,44,26,0,38,38,37,0,25,25,25,8,38,38,26,25,26,36,25,38,37,38,26,25,27,40,21,8,38,11,40,37,17,25,17,44,38,17,37,0,0,26,44,29,16,34,0,11,16,17,38,16,37,30,26,29,21,17,29,30,0,0,0,0,0,0,0,0,0,0,0,0,0,0,0,0,0,0,0,0,0,0,0,0,0,0,0,0,0,0,0,0,0,0,0,0,0,0,0,0,0,0,0,0,0,0,0,0,0,0,0,0,0,0,0,0,0,0,0,0,0,0,0,0,0,0,0,0,0,0,0,0,0,0,0,0,0,0,0,0,0,0,0,0,0,0,0,0,0,0,0,0,0,0,0,0,0,0,0,0,0,0,0,0,0,0,0],"split_type":[0,0,0,0,0,0,0,0,0,0,0,0,0,0,0,0,0,0,0,0,0,0,0,0,0,0,0,0,0,0,0,0,0,0,0,0,0,0,0,0,0,0,0,0,0,0,0,0,0,0,0,0,0,0,0,0,0,0,0,0,0,0,0,0,0,0,0,0,0,0,0,0,0,0,0,0,0,0,0,0,0,0,0,0,0,0,0,0,0,0,0,0,0,0,0,0,0,0,0,0,0,0,0,0,0,0,0,0,0,0,0,0,0,0,0,0,0,0,0,0,0,0,0,0,0,0,0,0,0,0,0,0,0,0,0,0,0,0,0,0,0,0,0,0,0,0,0,0,0,0,0,0,0,0,0,0,0,0,0,0,0,0,0,0,0,0,0,0,0,0,0,0,0,0,0,0,0,0,0,0,0,0,0,0,0,0,0,0,0,0,0,0,0,0,0,0,0,0,0,0,0,0,0,0,0,0,0,0,0,0,0,0,0,0,0,0,0,0,0,0,0,0,0,0,0,0,0],"sum_hessian":[6.1635E4,5.1095E4,1.054E4,4.2682E4,8.413E3,6.056E3,4.484E3,3.8095E4,4.587E3,4.821E3,3.592E3,4.045E3,2.011E3,2.806E3,1.678E3,3.4743E4,3.352E3,2.593E3,1.994E3,3.682E3,1.139E3,1.795E3,1.797E3,2.466E3,1.579E3,1.052E3,9.59E2,1.355E3,1.451E3,8.54E2,8.24E2,3.2755E4,1.988E3,2.106E3,1.246E3,1.901E3,6.92E2,1.131E3,8.63E2,1.519E3,2.163E3,8.82E2,2.57E2,1.234E3,5.61E2,3.28E2,1.469E3,1.404E3,1.062E3,1.296E3,2.83E2,2.3E1,1.029E3,5.89E2,3.7E2,6.63E2,6.92E2,9.04E2,5.47E2,6.48E2,2.06E2,8E2,2.4E1,1.262E3,7.26E2,7.86E2,4.6E2,6.8E2,1.221E3,4.32E2,2.6E2,7.73E2,3.58E2,8.3E2,3.3E1,1.181E3,3.38E2,1.98E2,1.965E3,3.04E2,5.78E2,2.19E2,3.8E1,4.48E2,7.86E2,3.26E2,2.35E2,2.46E2,8.2E1,1.267E3,2.02E2,6.88E2,7.16E2,9.07E2,1.55E2,5.91E2,7.05E2,1.8E2,1.03E2,1.8E1,5E0,4.45E2,5.84E2,2.54E2,3.35E2,3.61E2,9E0,8.6E1,5.77E2,8.5E1,6.07E2,6.82E2,2.22E2,1.81E2,3.66E2,6.12E2,3.6E1,1.61E2,4.5E1,4.99E2,3.01E2,9E0,1.5E1,4.53E2,2.73E2,5.24E2,2.62E2,1.4E2,3.2E2,8.65E2,3.56E2,4.14E2,1.8E1,2.4E2,2E1,8.2E1,6.91E2,2.15E2,1.43E2,3.14E2,5.16E2,1.6E1,1.7E1,8.62E2,3.19E2,4E1,2.98E2,1.16E2,8.2E1,1.319E3,6.46E2,2.99E2,5E0,3.39E2,2.39E2,1.37E2,8.2E1,1.4E1,2.4E1,3.64E2,8.4E1,3.03E2,4.83E2,2.49E2,7.7E1,6E1,1.75E2,1.72E2,7.4E1,3.1E1,5.1E1,2.13E2,1.054E3,1.59E2,4.3E1,6.52E2,3.6E1,1.1E1,7.05E2,4.36E2,4.71E2,4.4E1,1.11E2,3.8E2,2.11E2,2.19E2,4.86E2,5E0,1.75E2,4.8E1,5.5E1,3E1,4.15E2,2E2,3.84E2,2.16E2,3.8E1,3.28E2,7E0,1.55E2,2.06E2,7.5E1,1.1E1,5.09E2,6.8E1,4.7E1,3.8E1,8.2E1,5.25E2,6.16E2,6.6E1,6.7E1,1.55E2,5E0,1.76E2,4.2E1,3.24E2,4.36E2,1.76E2,3E1,6E0,1.4E1,1.47E2,8E0,3.7E1,4.69E2,3E1],"tree_param":{"num_deleted":"0","num_feature":"48","num_nodes":"227","size_leaf_vector":"1"}},{"base_weights":[2.1349324E-4,-2.348891E-1,9.2170906E-1,-3.0179647E-1,1.05439626E-1,9.66409E-2,2.009517E0,-3.144431E-1,-1.9031951E-1,-2.0231861E-1,5.253414E-1,1.6792273E-2,3.8530558E-1,1.2794218E0,3.1045744E0,-3.176525E-1,-2.7606544E-1,-2.8873694E-1,-4.4041414E-2,-2.3816717E-1,-1.5870667E-1,2.1790867E-1,9.339837E-1,-6.571528E-2,1.0979153E-1,3.1228235E-1,5.07483E-1,8.012798E-1,1.7010427E0,2.6801715E0,3.7397947E0,-3.18457E-2,-3.0534044E-1,-3.0870292E-2,-2.2134012E-1,-2.9999385E-2,-2.7588066E-1,-1.0949671E-1,1.557346E-1,-2.5940928E-1,-2.1494615E-1,-2.0406085E-1,-1.2068747E-1,1.13385834E-1,3.771185E-1,1.2698791E0,4.7027352E-1,-1.266338E-1,2.2938777E-2,2.9492622E-2,1.9414508E-1,3.512115E-1,1.6904142E-1,4.03981E-1,5.606296E-1,4.8039758E-1,1.0754005E0,1.4251192E0,2.0131974E0,2.9308786E0,1.9381304E0,3.9958038E0,3.046725E0,-3.161903E-2,-2.866993E-1,-2.5190008E-1,-1.6121002E-1,-2.7857468E-2,-2.497622E-1,-1.18124716E-1,9.470337E-2,4.439142E-1,2.8994786E-2,-2.5489002E-1,-2.9780949E-2,-2.4346869E-1,-1.9658175E-1,-2.3747857E-1,-1.8897983E-1,-1.5128228E-1,-9.051757E-2,3.6355857E-2,2.7195314E-1,6.685773E-1,2.6702073E-1,9.5338446E-1,1.6731441E0,2.2400679E-1,6.9373614E-1,-1.8282826E-1,-9.643463E-2,-5.230403E-2,7.521722E-2,8.446051E-2,-9.06378E-3,-1.9733945E-2,2.0861042E-1,-1.24608025E-1,3.6094594E-1,7.2184145E-2,2.1835074E-1,1.2249432E-2,4.120972E-1,6.0809594E-1,4.9961424E-1,3.587859E-1,6.7063284E-1,8.5604906E-1,1.373425E0,1.157737E0,1.7285293E0,2.0951269E0,9.2046785E-1,2.6760569E0,3.2674525E0,1.7036572E0,2.363718E0,4.048929E0,1.851363E0,3.398194E0,2.7208788E0,-3.008957E-2,-2.6340073E-2,-2.6351174E-2,-2.2835424E-2,-1.0142997E-2,-2.3642203E-2,-2.6505081E-2,-1.7756408E-2,-1.39283985E-2,-3.1320371E-3,-3.037039E-4,5.055168E-2,6.155316E-2,-6.99466E-4,-6.082918E-3,2.140106E-2,-2.6805097E-2,-2.4804031E-2,-2.5217662E-2,-2.2939347E-2,-1.7021468E-2,-2.0870773E-2,-2.4325158E-2,-2.044413E-2,-2.5148047E-4,-1.9124651E-2,-1.2160848E-2,-1.7683327E-2,-5.5890684E-3,-1.1567488E-2,1.696907E-2,-1.63401E-3,1.4345071E-2,4.6377532E-2,8.7702684E-2,4.4568192E-2,1.7646777E-2,5.015595E-2,3.3983506E-2,1.064926E-1,2.1140416E-1,1.3979732E-1,4.5969095E-2,1.6060328E-2,5.915628E-2,1.0295415E-1,-1.9655215E-2,-1.2432055E-2,-2.3957666E-2,-9.129529E-3,-1.670487E-2,-3.6990114E-3,1.3679068E-2,-7.8708114E-4,3.8403615E-3,1.692917E-2,-1.2936348E-2,-1.9846743E-4,6.9097592E-3,-1.8446391E-2,1.662639E-2,2.6156938E-2,1.2784416E-2,-2.509812E-2,4.134128E-2,2.9057523E-2,-5.161042E-4,9.094265E-3,1.9757656E-2,3.1890646E-2,4.449993E-2,3.3174757E-2,6.443884E-2,5.4799765E-2,4.5515314E-2,5.6026634E-2,4.4411518E-2,1.8013628E-2,6.354977E-2,1.3818644E-1,9.246837E-2,2.9211534E-2,1.530882E-1,7.30725E-2,1.03127554E-1,1.476979E-1,1.891625E-1,1.1674171E-1,1.6946344E-1,2.2097884E-1,1.0711267E-1,1.793686E-2,2.7097985E-1,1.4448641E-1,3.2984027E-1,1.0011263E-1,1.8815114E-1,1.4462869E-1,1.6683923E-1,2.4925403E-1,3.4443507E-1,4.2115483E-1,9.1720246E-2,2.1641631E-1,3.4551606E-1,2.0663834E-1,2.7693626E-1,1.2734865E-1],"categories":[],"categories_nodes":[],"categories_segments":[],"categories_sizes":[],"default_left":[0,0,0,0,0,0,0,0,0,0,0,0,0,0,0,0,0,0,0,0,0,0,0,0,0,0,0,0,0,0,0,0,0,0,0,0,0,0,0,0,0,0,0,0,0,0,0,0,0,0,0,0,0,0,0,0,0,0,0,0,0,0,0,0,0,0,0,0,0,0,0,0,0,0,0,0,0,0,0,0,0,0,0,0,0,0,0,0,0,0,0,0,0,0,0,0,0,0,0,0,0,0,0,0,0,0,0,0,0,0,0,0,0,0,0,0,0,0,0,0,0,0,0,0,0,0,0,0,0,0,0,0,0,0,0,0,0,0,0,0,0,0,0,0,0,0,0,0,0,0,0,0,0,0,0,0,0,0,0,0,0,0,0,0,0,0,0,0,0,0,0,0,0,0,0,0,0,0,0,0,0,0,0,0,0,0,0,0,0,0,0,0,0,0,0,0,0,0,0,0,0,0,0,0,0,0,0,0,0,0,0,0,0,0,0,0,0,0,0,0,0,0,0,0,0,0,0,0,0],"id":2,"left_children":[1,3,5,7,9,11,13,15,17,19,21,23,25,27,29,31,33,35,37,39,41,43,45,47,49,51,53,55,57,59,61,-1,63,-1,65,-1,67,69,71,73,75,77,79,81,83,85,87,89,91,93,95,97,99,101,103,105,107,109,111,113,115,117,119,-1,121,123,125,-1,127,129,131,133,135,137,-1,139,141,143,145,147,149,151,153,155,157,159,161,163,165,167,169,171,173,175,177,179,181,183,185,187,189,-1,191,193,195,197,199,201,203,205,207,209,211,213,215,217,219,221,223,225,227,-1,-1,-1,-1,-1,-1,-1,-1,-1,-1,-1,-1,-1,-1,-1,-1,-1,-1,-1,-1,-1,-1,-1,-1,-1,-1,-1,-1,-1,-1,-1,-1,-1,-1,-1,-1,-1,-1,-1,-1,-1,-1,-1,-1,-1,-1,-1,-1,-1,-1,-1,-1,-1,-1,-1,-1,-1,-1,-1,-1,-1,-1,-1,-1,-1,-1,-1,-1,-1,-1,-1,-1,-1,-1,-1,-1,-1,-1,-1,-1,-1,-1,-1,-1,-1,-1,-1,-1,-1,-1,-1,-1,-1,-1,-1,-1,-1,-1,-1,-1,-1,-1,-1,-1,-1,-1,-1,-1],"loss_changes":[1.3353409E4,1.1182454E3,1.124478E4,5.7798584E1,1.0428488E3,1.6424411E2,4.316506E3,4.4519043E0,6.0221466E1,7.2430725E0,4.2857178E2,4.2846367E1,1.361676E1,6.5260986E2,5.7256055E2,2.3950195E-1,5.0256195E0,2.7919006E-1,2.2037708E1,1.2040405E0,3.6033592E0,3.2390663E1,2.2758838E2,1.5983499E1,1.777471E1,5.3440094E0,2.9419556E0,1.3335913E2,1.4553516E2,2.3597949E2,1.409502E2,0E0,3.361206E-1,0E0,1.9237595E0,0E0,1.3450623E-2,2.2469597E0,1.5181042E1,1.5471649E-1,5.943184E-1,4.3792725E-1,1.0450344E0,1.4378718E1,2.459417E1,1.06763794E2,3.379898E1,2.958952E0,4.7478275E0,2.8534298E0,3.9642181E0,3.569809E0,9.824157E-1,4.0415573E-1,7.9093933E-1,1.6023163E1,5.242932E1,7.24729E1,7.022974E1,7.436328E1,2.9003174E1,6.393457E1,1.789624E1,0E0,1.8105316E-1,1.3312149E-1,1.6081324E0,0E0,8.539343E-2,2.2327576E0,2.0894952E0,9.83205E0,4.8324857E0,4.132843E-2,0E0,4.9591064E-4,2.0458984E-1,6.3438416E-3,2.8058434E-1,4.0915012E-1,4.9878407E-1,5.581581E0,9.423573E0,9.412697E0,1.1847347E1,3.2350647E1,4.217639E1,4.3344164E0,1.0473206E1,4.6697235E-1,8.1898403E-1,8.636302E-1,3.6436806E0,2.1619174E0,6.742219E-1,1.2126697E0,2.64542E0,5.425375E-1,2.6341934E0,1.04932785E-1,2.2526789E-1,0E0,3.6260223E-1,1.0054779E-1,2.0612335E-1,6.490177E0,5.9438934E0,1.811493E1,3.3895752E1,1.8299377E1,3.695996E1,3.0650146E1,6.28376E0,1.9224121E1,2.566748E1,7.211792E0,6.142395E0,4.556543E1,2.9825172E0,1.2056885E0,5.4556274E0,0E0,0E0,0E0,0E0,0E0,0E0,0E0,0E0,0E0,0E0,0E0,0E0,0E0,0E0,0E0,0E0,0E0,0E0,0E0,0E0,0E0,0E0,0E0,0E0,0E0,0E0,0E0,0E0,0E0,0E0,0E0,0E0,0E0,0E0,0E0,0E0,0E0,0E0,0E0,0E0,0E0,0E0,0E0,0E0,0E0,0E0,0E0,0E0,0E0,0E0,0E0,0E0,0E0,0E0,0E0,0E0,0E0,0E0,0E0,0E0,0E0,0E0,0E0,0E0,0E0,0E0,0E0,0E0,0E0,0E0,0E0,0E0,0E0,0E0,0E0,0E0,0E0,0E0,0E0,0E0,0E0,0E0,0E0,0E0,0E0,0E0,0E0,0E0,0E0,0E0,0E0,0E0,0E0,0E0,0E0,0E0,0E0,0E0,0E0,0E0,0E0,0E0,0E0,0E0,0E0,0E0,0E0,0E0],"parents":[2147483647,0,0,1,1,2,2,3,3,4,4,5,5,6,6,7,7,8,8,9,9,10,10,11,11,12,12,13,13,14,14,15,15,16,16,17,17,18,18,19,19,20,20,21,21,22,22,23,23,24,24,25,25,26,26,27,27,28,28,29,29,30,30,32,32,34,34,36,36,37,37,38,38,39,39,40,40,41,41,42,42,43,43,44,44,45,45,46,46,47,47,48,48,49,49,50,50,51,51,52,52,53,53,54,54,55,55,56,56,57,57,58,58,59,59,60,60,61,61,62,62,64,64,65,65,66,66,68,68,69,69,70,70,71,71,72,72,73,73,75,75,76,76,77,77,78,78,79,79,80,80,81,81,82,82,83,83,84,84,85,85,86,86,87,87,88,88,89,89,90,90,91,91,92,92,93,93,94,94,95,95,96,96,97,97,98,98,99,99,100,100,102,102,103,103,104,104,105,105,106,106,107,107,108,108,109,109,110,110,111,111,112,112,113,113,114,114,115,115,116,116,117,117,118,118,119,119,120,120],"right_children":[2,4,6,8,10,12,14,16,18,20,22,24,26,28,30,32,34,36,38,40,42,44,46,48,50,52,54,56,58,60,62,-1,64,-1,66,-1,68,70,72,74,76,78,80,82,84,86,88,90,92,94,96,98,100,102,104,106,108,110,112,114,116,118,120,-1,122,124,126,-1,128,130,132,134,136,138,-1,140,142,144,146,148,150,152,154,156,158,160,162,164,166,168,170,172,174,176,178,180,182,184,186,188,190,-1,192,194,196,198,200,202,204,206,208,210,212,214,216,218,220,222,224,226,228,-1,-1,-1,-1,-1,-1,-1,-1,-1,-1,-1,-1,-1,-1,-1,-1,-1,-1,-1,-1,-1,-1,-1,-1,-1,-1,-1,-1,-1,-1,-1,-1,-1,-1,-1,-1,-1,-1,-1,-1,-1,-1,-1,-1,-1,-1,-1,-1,-1,-1,-1,-1,-1,-1,-1,-1,-1,-1,-1,-1,-1,-1,-1,-1,-1,-1,-1,-1,-1,-1,-1,-1,-1,-1,-1,-1,-1,-1,-1,-1,-1,-1,-1,-1,-1,-1,-1,-1,-1,-1,-1,-1,-1,-1,-1,-1,-1,-1,-1,-1,-1,-1,-1,-1,-1,-1,-1,-1],"split_conditions":[3.21425E2,3.7675E1,1E0,1.67E1,1E0,1.2926225E6,8.0890594E5,7.025E0,1E0,1.45115E1,2.0508703E5,4.9533012E5,1.7806088E6,2.003951E5,1.4067804E6,2.1E0,1E0,5.9E1,4.9523383E-1,1.127575E1,2.615738E-1,8.53141E4,2.2818925E2,1.5315E2,3.14655E1,2.2270074E2,7.30425E2,3.97624E4,5.478E2,2.216965E2,2.1410025E2,-3.18457E-2,1E0,-3.0870292E-2,2.615738E-1,-2.9999385E-2,1.45115E1,2.2215E2,-7.1579534E-1,1E0,1.214097E5,2.3842875E4,1.791075E1,1.5282249E1,-8.035476E-1,4.090137E5,1.978E2,9.63E1,3.4587997E1,1.6228601E2,2.7605E2,9.92375E2,2.961375E1,1.00155E3,1E0,1.04649994E2,5.72875E2,5.0492112E5,1.4999999E-2,1.1129415E6,5.478E2,2.5E-3,2.2270074E2,-3.161903E-2,7.0710677E-1,4.1557503E0,2.824E2,-2.7857468E-2,3.01015E3,3.165442E-1,2.651749E-3,2.1558675E2,1.2795E0,9.0925E1,-2.9780949E-2,8.4355354E-2,1.3985875E2,2.0184E1,-9.99833E-1,1.5467226E2,2.6290888E5,-6.9135123E-1,2.9830333E-2,1.7755675E2,8.4602886E-1,6.954875E1,-8.2354724E-1,2.4701974E2,7.934567E5,6.1466402E4,2.74125E2,9.9825E2,7.42E1,9.089806E5,2.742E2,2.01825E2,4.007425E1,1.23325E0,1E0,1.1845E0,3.8796E1,1.2249432E-2,2.2270074E2,2.838E2,2.8604668E6,2.84025E2,1.932E2,7.5E-3,2.5E-3,4.613E2,2.368295E2,3.220717E5,9.7500004E-2,2E-2,9.9798876E-1,2.5479175E2,1.18175E0,1.0097E3,2.78E2,5.7933606E5,1.431E2,-3.008957E-2,-2.6340073E-2,-2.6351174E-2,-2.2835424E-2,-1.0142997E-2,-2.3642203E-2,-2.6505081E-2,-1.7756408E-2,-1.39283985E-2,-3.1320371E-3,-3.037039E-4,5.055168E-2,6.155316E-2,-6.99466E-4,-6.082918E-3,2.140106E-2,-2.6805097E-2,-2.4804031E-2,-2.5217662E-2,-2.2939347E-2,-1.7021468E-2,-2.0870773E-2,-2.4325158E-2,-2.044413E-2,-2.5148047E-4,-1.9124651E-2,-1.2160848E-2,-1.7683327E-2,-5.5890684E-3,-1.1567488E-2,1.696907E-2,-1.63401E-3,1.4345071E-2,4.6377532E-2,8.7702684E-2,4.4568192E-2,1.7646777E-2,5.015595E-2,3.3983506E-2,1.064926E-1,2.1140416E-1,1.3979732E-1,4.5969095E-2,1.6060328E-2,5.915628E-2,1.0295415E-1,-1.9655215E-2,-1.2432055E-2,-2.3957666E-2,-9.129529E-3,-1.670487E-2,-3.6990114E-3,1.3679068E-2,-7.8708114E-4,3.8403615E-3,1.692917E-2,-1.2936348E-2,-1.9846743E-4,6.9097592E-3,-1.8446391E-2,1.662639E-2,2.6156938E-2,1.2784416E-2,-2.509812E-2,4.134128E-2,2.9057523E-2,-5.161042E-4,9.094265E-3,1.9757656E-2,3.1890646E-2,4.449993E-2,3.3174757E-2,6.443884E-2,5.4799765E-2,4.5515314E-2,5.6026634E-2,4.4411518E-2,1.8013628E-2,6.354977E-2,1.3818644E-1,9.246837E-2,2.9211534E-2,1.530882E-1,7.30725E-2,1.03127554E-1,1.476979E-1,1.891625E-1,1.1674171E-1,1.6946344E-1,2.2097884E-1,1.0711267E-1,1.793686E-2,2.7097985E-1,1.4448641E-1,3.2984027E-1,1.0011263E-1,1.8815114E-1,1.4462869E-1,1.6683923E-1,2.4925403E-1,3.4443507E-1,4.2115483E-1,9.1720246E-2,2.1641631E-1,3.4551606E-1,2.0663834E-1,2.7693626E-1,1.2734865E-1],"split_indices":[3,7,33,7,33,10,10,7,33,24,10,10,10,10,10,7,33,3,41,24,41,10,23,7,24,23,3,10,3,23,23,0,33,0,41,0,24,3,36,46,10,10,24,24,36,10,3,7,24,23,26,14,24,14,35,7,3,10,15,10,3,15,23,0,38,24,26,0,10,41,41,23,1,3,0,41,23,24,36,23,8,36,41,23,36,23,36,23,10,10,26,14,21,10,26,7,24,1,35,1,24,0,23,6,2,6,7,15,15,3,23,10,15,15,36,23,1,14,6,8,7,0,0,0,0,0,0,0,0,0,0,0,0,0,0,0,0,0,0,0,0,0,0,0,0,0,0,0,0,0,0,0,0,0,0,0,0,0,0,0,0,0,0,0,0,0,0,0,0,0,0,0,0,0,0,0,0,0,0,0,0,0,0,0,0,0,0,0,0,0,0,0,0,0,0,0,0,0,0,0,0,0,0,0,0,0,0,0,0,0,0,0,0,0,0,0,0,0,0,0,0,0,0,0,0,0,0,0,0],"split_type":[0,0,0,0,0,0,0,0,0,0,0,0,0,0,0,0,0,0,0,0,0,0,0,0,0,0,0,0,0,0,0,0,0,0,0,0,0,0,0,0,0,0,0,0,0,0,0,0,0,0,0,0,0,0,0,0,0,0,0,0,0,0,0,0,0,0,0,0,0,0,0,0,0,0,0,0,0,0,0,0,0,0,0,0,0,0,0,0,0,0,0,0,0,0,0,0,0,0,0,0,0,0,0,0,0,0,0,0,0,0,0,0,0,0,0,0,0,0,0,0,0,0,0,0,0,0,0,0,0,0,0,0,0,0,0,0,0,0,0,0,0,0,0,0,0,0,0,0,0,0,0,0,0,0,0,0,0,0,0,0,0,0,0,0,0,0,0,0,0,0,0,0,0,0,0,0,0,0,0,0,0,0,0,0,0,0,0,0,0,0,0,0,0,0,0,0,0,0,0,0,0,0,0,0,0,0,0,0,0,0,0,0,0,0,0,0,0,0,0,0,0,0,0,0,0,0,0,0,0],"sum_hessian":[6.1635E4,4.9107E4,1.2528E4,4.1039E4,8.068E3,7.125E3,5.403E3,3.6856E4,4.183E3,4.656E3,3.412E3,5.582E3,1.543E3,3.243E3,2.16E3,3.4005E4,2.851E3,2.5E3,1.683E3,2.553E3,2.103E3,1.948E3,1.464E3,2.958E3,2.624E3,9.68E2,5.75E2,1.521E3,1.722E3,1.298E3,8.62E2,3.1896E4,2.109E3,1.783E3,1.068E3,1.321E3,1.179E3,1.268E3,4.15E2,1.328E3,1.225E3,9.57E2,1.146E3,1.177E3,7.71E2,8.48E2,6.16E2,1.753E3,1.205E3,1.345E3,1.279E3,7.6E2,2.08E2,1.98E2,3.77E2,7.02E2,8.19E2,9.17E2,8.05E2,9.68E2,3.3E2,6.26E2,2.36E2,1.323E3,7.86E2,7.06E2,3.62E2,1.06E3,1.19E2,1.217E3,5.1E1,1.26E2,2.89E2,1.195E3,1.33E2,4.75E2,7.5E2,2.93E2,6.64E2,5.67E2,5.79E2,7.93E2,3.84E2,2.1E2,5.61E2,4.77E2,3.71E2,2.94E2,3.22E2,6.11E2,1.142E3,4.94E2,7.11E2,5.54E2,7.91E2,8.1E1,1.198E3,1.5E1,7.45E2,7.1E1,1.37E2,6E0,1.92E2,2.07E2,1.7E2,4.3E2,2.72E2,4.74E2,3.45E2,4.9E2,4.27E2,7.48E2,5.7E1,5.56E2,4.12E2,2.16E2,1.14E2,6.1E2,1.6E1,1.09E2,1.27E2,4.81E2,3.05E2,4.66E2,2.4E2,2.03E2,1.59E2,9.6E1,2.3E1,9.78E2,2.39E2,4.2E1,9E0,9.1E1,3.5E1,1.95E2,9.4E1,3.96E2,7.99E2,2.83E2,1.92E2,2.41E2,5.09E2,2.44E2,4.9E1,8E0,6.56E2,2.65E2,3.02E2,2.45E2,3.34E2,2.24E2,5.69E2,2.31E2,1.53E2,1.07E2,1.03E2,4.06E2,1.55E2,7.4E1,4.03E2,1.4E2,2.31E2,6.1E1,2.33E2,2.49E2,7.3E1,4.93E2,1.18E2,3.8E1,1.104E3,5.7E1,4.37E2,4.08E2,3.03E2,3.6E2,1.94E2,4.3E1,7.48E2,5.3E1,2.8E1,6.68E2,5.3E2,5E0,1E1,4.24E2,3.21E2,1.4E1,5.7E1,1.16E2,2.1E1,1.33E2,5.9E1,1.23E2,8.4E1,1.03E2,6.7E1,2.9E2,1.4E2,2.61E2,1.1E1,4.22E2,5.2E1,2.76E2,6.9E1,3.54E2,1.36E2,3.29E2,9.8E1,1.7E2,5.78E2,4.7E1,1E1,5.4E2,1.6E1,4.06E2,6E0,1.24E2,9.2E1,2E1,9.4E1,1.34E2,4.76E2,5E0,1.1E1,1.03E2,6E0,1.22E2,5E0],"tree_param":{"num_deleted":"0","num_feature":"48","num_nodes":"229","size_leaf_vector":"1"}},{"base_weights":[2.9259332E-4,-1.7870283E-1,1.0029123E0,-2.5366852E-1,2.572056E-1,1.391232E0,1.629446E-1,-2.7850857E-1,-7.84018E-2,4.079214E-1,-9.540686E-2,1.0412198E0,2.088471E0,-5.7133897E-3,3.151969E-1,-2.8370938E-1,-2.0474842E-1,-7.399454E-3,-2.3285308E-1,2.5792173E-1,8.0197734E-1,-1.4544381E-1,2.9071933E-2,8.547712E-1,1.381091E0,1.6371694E0,2.2359166E0,-9.9868394E-2,5.721268E-2,2.4539712E-1,4.808739E-1,-2.8552046E-1,-2.3767674E-1,-1.641948E-1,-2.740717E-2,-6.3769594E-2,2.8721595E-1,-2.4472207E-1,-2.0950171E-1,1.6752756E-1,4.0962392E-1,4.816313E-1,8.842384E-1,-1.8921188E-1,-1.1029868E-1,-4.908626E-2,9.1222145E-2,6.966965E-1,1.1760895E0,1.1078086E0,1.5196382E0,1.3994874E0,1.9049112E0,1.9937011E0,2.5493937E0,-2.7592117E-2,-1.4066085E-1,2.5092773E-2,1.7337713E-1,1.6029088E-1,3.0735722E-1,4.1956103E-1,5.444397E-1,-2.8659431E-2,-2.7442592E-1,-2.2192685E-1,-2.7133077E-2,-1.8567623E-1,-6.19193E-3,-8.83098E-2,1.5154524E-2,7.300136E-2,5.280463E-1,-2.2651857E-1,-2.5333062E-1,-2.1849114E-1,-1.7170794E-1,2.635734E-1,9.384539E-2,3.5790306E-1,6.5140975E-1,1.4823497E-2,5.9352905E-1,9.283722E-1,2.5852463E-1,-1.9969952E-1,-1.4521901E-1,-1.401919E-1,-8.369127E-2,-2.1636736E-2,-1.2858438E-1,1.2615699E-1,-7.990936E-2,4.8629183E-1,8.040872E-1,1.0068767E0,1.4282913E0,6.058976E-1,1.2364376E0,1.4736488E0,2.4373837E0,1.492778E0,7.5627047E-1,1.2564381E0,2.1119404E0,2.4837103E0,1.7885288E0,2.3490636E0,2.831742E0,-6.942153E-2,3.6783677E-2,-1.7188294E-1,-7.2921105E-2,8.266275E-2,-4.78837E-4,-2.375817E-2,1.8873698E-1,2.3416257E-1,8.762319E-2,3.3487704E-1,1.9955336E-1,2.0559716E-1,4.3405572E-1,4.9214852E-1,5.9801985E-2,-2.6983663E-2,-2.8484467E-2,-2.3198588E-2,-1.6709773E-2,-2.243609E-2,-1.5029418E-2,1.8007815E-2,-8.012762E-3,-1.1866175E-2,1.3837534E-3,-8.4221875E-3,1.1932449E-2,1.0170405E-3,2.9276846E-2,7.308758E-2,2.5552958E-2,-2.4585048E-2,-2.0513734E-2,-2.4648115E-2,-2.7040606E-2,-1.3752028E-2,-2.2046333E-2,-2.0253723E-2,-1.3215139E-2,5.2253366E-2,2.0495815E-2,3.3014682E-3,1.927048E-2,3.0926127E-2,7.069387E-2,1.0646649E-1,4.5986533E-2,1.9033076E-2,-1.446932E-2,5.164064E-2,1.3188307E-1,5.7562906E-2,1.00900926E-1,2.0301968E-2,7.257536E-2,-2.3628721E-2,-1.89164E-2,-1.1641558E-2,-1.748399E-2,-1.5368651E-2,-1.0257117E-2,-7.1304375E-3,-1.4839967E-2,-5.6346445E-3,1.6584721E-3,-2.1021372E-2,-7.548152E-3,9.756745E-3,2.129119E-2,-1.1527618E-2,5.210853E-3,4.044177E-2,1.0170537E-1,9.016731E-2,6.010304E-2,1.3246985E-1,9.1110244E-2,2.0137702E-1,1.24347545E-1,8.237795E-2,1.9432528E-2,6.463728E-2,1.3332024E-1,1.2209546E-1,1.6695312E-1,1.376655E-1,2.858432E-1,1.6179861E-1,7.384076E-2,1.4269756E-1,4.657696E-2,1.4871731E-1,4.3432385E-2,2.5900367E-1,1.7470938E-1,2.310925E-1,3.4596094E-1,1.7062192E-1,3.1743208E-1,2.937226E-1,2.1830903E-1,3.0564767E-1,2.0871858E-1,-7.4084573E-3,3.4632352E-3,5.5652666E-3,-5.7493094E-3,-2.3596091E-2,-1.5424264E-2,3.4051184E-3,-8.930746E-3,1.8502759E-3,1.356737E-2,-5.368863E-3,3.3539135E-3,2.6385827E-2,1.0705356E-2,1.4145166E-2,2.9652042E-2,1.0666875E-2,-2.4582168E-2,2.9107139E-2,3.892586E-2,2.2717608E-2,3.4888354E-3,-1.1205574E-4,3.8947076E-2,4.5817208E-2,3.2901652E-2,5.0133087E-2,3.252366E-2],"categories":[],"categories_nodes":[],"categories_segments":[],"categories_sizes":[],"default_left":[0,0,0,0,0,0,0,0,0,0,0,0,0,0,0,0,0,0,0,0,0,0,0,0,0,0,0,0,0,0,0,0,0,0,0,0,0,0,0,0,0,0,0,0,0,0,0,0,0,0,0,0,0,0,0,0,0,0,0,0,0,0,0,0,0,0,0,0,0,0,0,0,0,0,0,0,0,0,0,0,0,0,0,0,0,0,0,0,0,0,0,0,0,0,0,0,0,0,0,0,0,0,0,0,0,0,0,0,0,0,0,0,0,0,0,0,0,0,0,0,0,0,0,0,0,0,0,0,0,0,0,0,0,0,0,0,0,0,0,0,0,0,0,0,0,0,0,0,0,0,0,0,0,0,0,0,0,0,0,0,0,0,0,0,0,0,0,0,0,0,0,0,0,0,0,0,0,0,0,0,0,0,0,0,0,0,0,0,0,0,0,0,0,0,0,0,0,0,0,0,0,0,0,0,0,0,0,0,0,0,0,0,0,0,0,0,0,0,0,0,0,0,0,0,0,0,0,0,0,0,0,0,0,0,0,0,0,0,0,0,0],"id":3,"left_children":[1,3,5,7,9,11,13,15,17,19,21,23,25,27,29,31,33,35,37,39,41,43,45,47,49,51,53,55,57,59,61,63,65,67,-1,69,71,73,75,77,79,81,83,85,87,89,91,93,95,97,99,101,103,105,107,109,111,113,115,117,119,121,123,-1,125,127,-1,129,131,133,135,137,139,141,143,145,147,149,151,153,155,157,159,161,163,165,167,169,171,173,175,177,179,181,183,185,187,189,191,193,195,197,199,201,203,205,207,209,211,213,215,217,219,221,223,-1,225,227,229,231,233,235,237,239,-1,-1,-1,-1,-1,-1,-1,-1,-1,-1,-1,-1,-1,-1,-1,-1,-1,-1,-1,-1,-1,-1,-1,-1,-1,-1,-1,-1,-1,-1,-1,-1,-1,-1,-1,-1,-1,-1,-1,-1,-1,-1,-1,-1,-1,-1,-1,-1,-1,-1,-1,-1,-1,-1,-1,-1,-1,-1,-1,-1,-1,-1,-1,-1,-1,-1,-1,-1,-1,-1,-1,-1,-1,-1,-1,-1,-1,-1,-1,-1,-1,-1,-1,-1,-1,-1,-1,-1,-1,-1,-1,-1,-1,-1,-1,-1,-1,-1,-1,-1,-1,-1,-1,-1,-1,-1,-1,-1,-1,-1,-1,-1,-1,-1,-1,-1,-1],"loss_changes":[1.1061644E4,1.7091338E3,3.0452783E3,1.9426367E2,4.0792123E2,1.5560361E3,7.5830605E1,1.4935547E1,6.076312E1,3.176183E2,1.4323637E1,2.6832568E2,1.3827441E2,8.31229E0,1.7829666E1,2.97583E0,7.2025604E0,6.307704E1,4.3236542E-1,5.335721E1,3.8627747E1,2.5018349E0,3.2104597E0,1.3880847E2,5.529956E1,3.0998291E1,1.16782715E2,1.6530786E0,3.1335816E0,5.7196045E0,1.5604858E0,3.400879E-1,6.754837E-1,5.5278816E0,0E0,6.1759014E0,3.1430973E1,1.2298584E-1,1.646328E-1,1.7264046E1,1.7949677E1,1.5922798E1,3.229065E1,3.0734634E-1,7.136555E-1,6.365984E-1,2.210152E0,4.129773E1,3.7183594E1,3.2176636E1,3.8446045E1,1.5912781E1,3.037268E1,8.7045654E1,3.271582E1,5.518851E-1,7.4674225E-1,9.716631E-1,1.1936731E0,2.4649048E0,1.8081512E0,6.4888E-1,3.276825E-1,0E0,7.246399E-2,4.8574066E-1,0E0,1.9290581E0,2.7137425E0,7.541744E0,7.846541E0,4.470872E0,1.5677002E1,1.0622406E-1,2.3757935E-2,4.585266E-2,1.183548E-1,1.5982674E1,8.316582E0,2.0154633E1,1.9695358E1,1.7073196E0,1.3079475E1,3.0707703E1,1.9014058E0,1.8118858E-1,1.0250449E-1,2.0152092E-1,3.7816358E-1,2.9147208E-1,3.0923903E-1,7.3819304E-1,3.0015722E-1,2.6791931E1,2.3632935E1,1.5382385E1,3.6558228E1,9.345379E0,2.2262756E1,4.5034424E1,1.6609375E1,2.2135254E1,6.739292E0,1.1114899E1,2.7744812E1,3.6858276E1,6.815576E1,3.390454E1,4.11416E1,6.2731504E-2,1.4729112E-1,2.4054193E-1,2.0462292E-1,6.8792963E-1,8.308215E-1,0E0,1.0517182E0,1.2819633E0,1.518623E0,1.0825729E0,5.8792734E-1,6.466053E-1,4.1161346E-1,1.7799377E-2,0E0,0E0,0E0,0E0,0E0,0E0,0E0,0E0,0E0,0E0,0E0,0E0,0E0,0E0,0E0,0E0,0E0,0E0,0E0,0E0,0E0,0E0,0E0,0E0,0E0,0E0,0E0,0E0,0E0,0E0,0E0,0E0,0E0,0E0,0E0,0E0,0E0,0E0,0E0,0E0,0E0,0E0,0E0,0E0,0E0,0E0,0E0,0E0,0E0,0E0,0E0,0E0,0E0,0E0,0E0,0E0,0E0,0E0,0E0,0E0,0E0,0E0,0E0,0E0,0E0,0E0,0E0,0E0,0E0,0E0,0E0,0E0,0E0,0E0,0E0,0E0,0E0,0E0,0E0,0E0,0E0,0E0,0E0,0E0,0E0,0E0,0E0,0E0,0E0,0E0,0E0,0E0,0E0,0E0,0E0,0E0,0E0,0E0,0E0,0E0,0E0,0E0,0E0,0E0,0E0,0E0,0E0,0E0,0E0,0E0,0E0,0E0,0E0,0E0,0E0,0E0,0E0],"parents":[2147483647,0,0,1,1,2,2,3,3,4,4,5,5,6,6,7,7,8,8,9,9,10,10,11,11,12,12,13,13,14,14,15,15,16,16,17,17,18,18,19,19,20,20,21,21,22,22,23,23,24,24,25,25,26,26,27,27,28,28,29,29,30,30,31,31,32,32,33,33,35,35,36,36,37,37,38,38,39,39,40,40,41,41,42,42,43,43,44,44,45,45,46,46,47,47,48,48,49,49,50,50,51,51,52,52,53,53,54,54,55,55,56,56,57,57,58,58,59,59,60,60,61,61,62,62,64,64,65,65,67,67,68,68,69,69,70,70,71,71,72,72,73,73,74,74,75,75,76,76,77,77,78,78,79,79,80,80,81,81,82,82,83,83,84,84,85,85,86,86,87,87,88,88,89,89,90,90,91,91,92,92,93,93,94,94,95,95,96,96,97,97,98,98,99,99,100,100,101,101,102,102,103,103,104,104,105,105,106,106,107,107,108,108,109,109,110,110,111,111,112,112,113,113,114,114,116,116,117,117,118,118,119,119,120,120,121,121,122,122,123,123],"right_children":[2,4,6,8,10,12,14,16,18,20,22,24,26,28,30,32,34,36,38,40,42,44,46,48,50,52,54,56,58,60,62,64,66,68,-1,70,72,74,76,78,80,82,84,86,88,90,92,94,96,98,100,102,104,106,108,110,112,114,116,118,120,122,124,-1,126,128,-1,130,132,134,136,138,140,142,144,146,148,150,152,154,156,158,160,162,164,166,168,170,172,174,176,178,180,182,184,186,188,190,192,194,196,198,200,202,204,206,208,210,212,214,216,218,220,222,224,-1,226,228,230,232,234,236,238,240,-1,-1,-1,-1,-1,-1,-1,-1,-1,-1,-1,-1,-1,-1,-1,-1,-1,-1,-1,-1,-1,-1,-1,-1,-1,-1,-1,-1,-1,-1,-1,-1,-1,-1,-1,-1,-1,-1,-1,-1,-1,-1,-1,-1,-1,-1,-1,-1,-1,-1,-1,-1,-1,-1,-1,-1,-1,-1,-1,-1,-1,-1,-1,-1,-1,-1,-1,-1,-1,-1,-1,-1,-1,-1,-1,-1,-1,-1,-1,-1,-1,-1,-1,-1,-1,-1,-1,-1,-1,-1,-1,-1,-1,-1,-1,-1,-1,-1,-1,-1,-1,-1,-1,-1,-1,-1,-1,-1,-1,-1,-1,-1,-1,-1,-1,-1,-1],"split_conditions":[1.17675E2,6.2075E1,1E0,2.6375E1,1E0,3.29175E2,3.14655E1,1.75E0,1E0,1.51225E2,1.4455E2,3.14655E1,9.97075E2,2.071775E1,4.56425E2,3.8987498E0,1E0,5.91E1,1.092075E1,1.04649994E2,4.775E2,1.8314499E1,3.4587997E1,2.2645E2,1.0073E3,2.14135E3,4.007425E1,1.46579E2,3.17725E2,1.53345E3,5.3715E2,2.25E0,1E0,1.61E1,-2.740717E-2,2.845E1,-8.0549E-2,1.4058826E2,7.3675E1,9.64E1,1.00595E3,9.8865E2,7.5E-1,7.6875E1,1.05799995E2,-2.2072364E-1,7.5E-2,-7.3430425E-1,1.0163E3,2.811E2,1.02135E3,2.9345E2,3.377275E1,-3.9135784E-1,-1.325E0,1.739E2,1.872675E1,1.2894975E2,9.7905E2,-7.2251886E-1,2.9245E2,9.9592505E2,2.7177674E-1,-2.8659431E-2,1E0,1.0571E1,-2.7133077E-2,-2.3746832E-1,2.7405E2,1.5282249E1,-1.9970155E-1,9.659258E-1,1.8488574E2,2.6175E1,7.3576224E-1,9.7007495E2,5E-1,-9.5785236E-1,1.5E-1,2.2500001E-1,9.45E1,-8.660254E-1,9.415E1,2.77665E1,8.354273E5,2.75925E2,1.5467226E2,1.437775E3,9.272376E-1,1.5693E3,2.76625E2,1.973575E3,2.9E2,1.3659999E2,2.1410025E2,-9.8820424E-1,-8.3318293E-1,7.5E-2,9.847E2,9.1825E2,1.6827501E2,6.227638E5,1.6017775E2,9.63E1,2.90475E2,1.01275E3,1.0326E3,-2.091735E-1,2.5E-1,3.1552244E5,2.6290888E5,2.7505E2,1.68916E2,2.009E2,1.392775E3,-2.375817E-2,1.6718675E2,2.19475E2,9.861463E-1,4.007425E1,9.75E1,2.856E2,2.06387E2,2.2036725E2,5.9801985E-2,-2.6983663E-2,-2.8484467E-2,-2.3198588E-2,-1.6709773E-2,-2.243609E-2,-1.5029418E-2,1.8007815E-2,-8.012762E-3,-1.1866175E-2,1.3837534E-3,-8.4221875E-3,1.1932449E-2,1.0170405E-3,2.9276846E-2,7.308758E-2,2.5552958E-2,-2.4585048E-2,-2.0513734E-2,-2.4648115E-2,-2.7040606E-2,-1.3752028E-2,-2.2046333E-2,-2.0253723E-2,-1.3215139E-2,5.2253366E-2,2.0495815E-2,3.3014682E-3,1.927048E-2,3.0926127E-2,7.069387E-2,1.0646649E-1,4.5986533E-2,1.9033076E-2,-1.446932E-2,5.164064E-2,1.3188307E-1,5.7562906E-2,1.00900926E-1,2.0301968E-2,7.257536E-2,-2.3628721E-2,-1.89164E-2,-1.1641558E-2,-1.748399E-2,-1.5368651E-2,-1.0257117E-2,-7.1304375E-3,-1.4839967E-2,-5.6346445E-3,1.6584721E-3,-2.1021372E-2,-7.548152E-3,9.756745E-3,2.129119E-2,-1.1527618E-2,5.210853E-3,4.044177E-2,1.0170537E-1,9.016731E-2,6.010304E-2,1.3246985E-1,9.1110244E-2,2.0137702E-1,1.24347545E-1,8.237795E-2,1.9432528E-2,6.463728E-2,1.3332024E-1,1.2209546E-1,1.6695312E-1,1.376655E-1,2.858432E-1,1.6179861E-1,7.384076E-2,1.4269756E-1,4.657696E-2,1.4871731E-1,4.3432385E-2,2.5900367E-1,1.7470938E-1,2.310925E-1,3.4596094E-1,1.7062192E-1,3.1743208E-1,2.937226E-1,2.1830903E-1,3.0564767E-1,2.0871858E-1,-7.4084573E-3,3.4632352E-3,5.5652666E-3,-5.7493094E-3,-2.3596091E-2,-1.5424264E-2,3.4051184E-3,-8.930746E-3,1.8502759E-3,1.356737E-2,-5.368863E-3,3.3539135E-3,2.6385827E-2,1.0705356E-2,1.4145166E-2,2.9652042E-2,1.0666875E-2,-2.4582168E-2,2.9107139E-2,3.892586E-2,2.2717608E-2,3.4888354E-3,-1.1205574E-4,3.8947076E-2,4.5817208E-2,3.2901652E-2,5.0133087E-2,3.252366E-2],"split_indices":[9,7,34,7,34,9,24,9,34,7,7,24,17,24,9,24,34,9,24,7,4,24,24,9,22,4,24,23,9,4,9,7,34,9,0,9,37,23,9,27,17,17,16,9,7,37,20,37,22,26,18,26,24,36,31,9,24,23,17,37,26,18,36,0,34,24,0,37,26,24,37,38,23,9,37,17,38,36,25,25,27,39,9,24,8,26,23,4,36,4,26,4,26,7,23,36,36,25,17,4,9,8,23,7,26,17,22,36,31,8,8,26,23,9,4,0,23,9,36,24,27,26,23,23,0,0,0,0,0,0,0,0,0,0,0,0,0,0,0,0,0,0,0,0,0,0,0,0,0,0,0,0,0,0,0,0,0,0,0,0,0,0,0,0,0,0,0,0,0,0,0,0,0,0,0,0,0,0,0,0,0,0,0,0,0,0,0,0,0,0,0,0,0,0,0,0,0,0,0,0,0,0,0,0,0,0,0,0,0,0,0,0,0,0,0,0,0,0,0,0,0,0,0,0,0,0,0,0,0,0,0,0,0,0,0,0,0,0,0,0,0],"split_type":[0,0,0,0,0,0,0,0,0,0,0,0,0,0,0,0,0,0,0,0,0,0,0,0,0,0,0,0,0,0,0,0,0,0,0,0,0,0,0,0,0,0,0,0,0,0,0,0,0,0,0,0,0,0,0,0,0,0,0,0,0,0,0,0,0,0,0,0,0,0,0,0,0,0,0,0,0,0,0,0,0,0,0,0,0,0,0,0,0,0,0,0,0,0,0,0,0,0,0,0,0,0,0,0,0,0,0,0,0,0,0,0,0,0,0,0,0,0,0,0,0,0,0,0,0,0,0,0,0,0,0,0,0,0,0,0,0,0,0,0,0,0,0,0,0,0,0,0,0,0,0,0,0,0,0,0,0,0,0,0,0,0,0,0,0,0,0,0,0,0,0,0,0,0,0,0,0,0,0,0,0,0,0,0,0,0,0,0,0,0,0,0,0,0,0,0,0,0,0,0,0,0,0,0,0,0,0,0,0,0,0,0,0,0,0,0,0,0,0,0,0,0,0,0,0,0,0,0,0,0,0,0,0,0,0,0,0,0,0,0,0],"sum_hessian":[6.1635E4,5.2299E4,9.336E3,4.4625E4,7.674E3,6.384E3,2.952E3,3.9085E4,5.54E3,5.376E3,2.298E3,4.252E3,2.132E3,1.401E3,1.551E3,3.6508E4,2.577E3,3.796E3,1.744E3,3.895E3,1.481E3,1.639E3,6.59E2,2.748E3,1.504E3,5.28E2,1.604E3,5.61E2,8.4E2,1.093E3,4.58E2,3.5121E4,1.387E3,1.628E3,9.49E2,3.187E3,6.09E2,1.15E3,5.94E2,2.442E3,1.453E3,3.04E2,1.177E3,7.28E2,9.11E2,2.92E2,3.67E2,1.844E3,9.04E2,5.09E2,9.95E2,2.83E2,2.45E2,9.09E2,6.95E2,2.03E2,3.58E2,6.59E2,1.81E2,4.62E2,6.31E2,2.37E2,2.21E2,3.1999E4,3.122E3,9.5E2,4.37E2,1.433E3,1.95E2,2.431E3,7.56E2,3.23E2,2.86E2,3.78E2,7.72E2,4.76E2,1.18E2,1.059E3,1.383E3,1.199E3,2.54E2,5.9E1,2.45E2,1.099E3,7.8E1,5.85E2,1.43E2,4.27E2,4.84E2,2.18E2,7.4E1,3.05E2,6.2E1,6.25E2,1.219E3,5.44E2,3.6E2,1.05E2,4.04E2,9.5E2,4.5E1,2.46E2,3.7E1,6.1E1,1.84E2,2.65E2,6.44E2,4.12E2,2.83E2,1.23E2,8E1,2.44E2,1.14E2,2.02E2,4.57E2,6E0,1.75E2,2.28E2,2.34E2,5.01E2,1.3E2,1.6E1,2.21E2,1.17E2,1.04E2,2.186E3,9.36E2,8E2,1.5E2,6.82E2,7.51E2,5.5E1,1.4E2,1.874E3,5.57E2,3.87E2,3.69E2,2.52E2,7.1E1,1.63E2,1.23E2,1.93E2,1.85E2,5.62E2,2.1E2,1.3E1,4.63E2,6.4E1,5.4E1,1.94E2,8.65E2,8.57E2,5.26E2,1.054E3,1.45E2,7.9E1,1.75E2,2.8E1,3.1E1,2.23E2,2.2E1,2.06E2,8.93E2,7.1E1,7E0,1.26E2,4.59E2,7.5E1,6.8E1,3.12E2,1.15E2,4.08E2,7.6E1,1.14E2,1.04E2,2.8E1,4.6E1,2.31E2,7.4E1,4.9E1,1.3E1,5.43E2,8.2E1,8.21E2,3.98E2,1.23E2,4.21E2,8.4E1,2.76E2,6.8E1,3.7E1,5.8E1,3.46E2,4.18E2,5.32E2,1.4E1,3.1E1,2.1E2,3.6E1,1E1,2.7E1,4.7E1,1.4E1,7.7E1,1.07E2,2.28E2,3.7E1,6.1E2,3.4E1,8.7E1,3.25E2,2.15E2,6.8E1,1.18E2,5E0,6.7E1,1.3E1,5E1,1.94E2,1.5E1,9.9E1,9.2E1,1.1E2,1.78E2,2.79E2,9E1,8.5E1,9.3E1,1.35E2,2.22E2,1.2E1,2.81E2,2.2E2,1.11E2,1.9E1,8E0,8E0,1.77E2,4.4E1,1.09E2,8E0],"tree_param":{"num_deleted":"0","num_feature":"48","num_nodes":"241","size_leaf_vector":"1"}},{"base_weights":[3.569368E-4,-1.8379559E-1,8.6835575E-1,-2.4389663E-1,8.53065E-2,5.650572E-2,1.9654381E0,-2.552179E-1,-1.5561226E-1,-1.73353E-1,4.300561E-1,-2.285291E-2,2.3961414E-1,1.5267032E0,2.9511998E0,-2.5748295E-1,-2.2919607E-1,-2.3528314E-1,-4.3507315E-2,-2.016907E-1,-1.2735333E-1,2.2145511E-1,6.33371E-1,-1.0197629E-1,4.6987973E-2,1.0298749E-1,3.4230712E-1,1.2318219E0,1.9197675E0,2.7406495E0,3.4661577E0,-2.580893E-2,-2.5048023E-1,-2.5182132E-2,-1.910069E-1,-2.4330056E-1,-2.1278909E-1,-6.428725E-2,1.6418688E-1,-2.2291803E-1,-1.8496597E-1,-1.6145691E-1,-9.603042E-2,2.6374245E-1,1.4762904E-3,6.933023E-1,2.0941827E-1,-1.6810738E-1,-7.282506E-2,-4.0803604E-2,9.9191986E-2,5.1952235E-2,1.9410609E-1,2.8467628E-1,4.6790108E-1,1.3417E0,8.4759676E-1,2.1690423E0,1.6844077E0,2.7998788E0,1.4989681E0,3.5382197E0,2.5133622E0,-2.5721822E-2,-2.386138E-1,-1.6808663E-1,-2.1199381E-1,-2.5499552E-2,-2.3871616E-2,-1.3855195E-1,-2.149957E-1,-2.7789861E-2,-1.2747343E-1,2.8630385E-1,3.7480917E-2,-2.3843974E-1,-2.1136762E-1,-2.0987414E-1,-1.636697E-1,-1.77803E-1,-1.3420406E-1,-1.3080673E-1,-6.747202E-2,1.9401006E-2,3.1370315E-1,-5.281045E-2,7.266776E-2,3.6234275E-1,7.541422E-1,1.6669898E-1,4.3736163E-1,-2.7626115E-1,-1.6037199E-1,-1.8604551E-1,-6.078933E-2,-7.796287E-2,1.6038934E-2,5.214953E-2,1.5139268E-1,-2.1877633E-1,6.6124626E-2,1.4930412E-1,2.7236626E-1,-1.8321621E-1,2.9532838E-1,3.362254E-1,4.8875198E-1,9.719972E-1,1.4691806E0,5.9925383E-1,1.0110421E0,2.272913E0,1.4894023E0,1.7532253E0,1.0926886E0,2.952892E0,2.3765628E0,7.2334784E-1,1.7100079E0,3.0955622E0,3.6279185E0,2.8220305E0,1.0078287E-1,-2.2528103E-2,-2.4562236E-2,-6.429251E-3,-1.7706389E-2,-2.264874E-2,-1.895553E-2,-1.7416067E-2,-2.7193504E-3,-1.9915648E-2,-2.2220341E-2,-1.4151414E-2,1.42215E-3,-1.6870677E-2,-8.770584E-3,1.785872E-2,5.350178E-2,-6.9435383E-3,1.1850552E-2,-2.63326E-2,-2.3359818E-2,-1.852549E-2,-2.2140685E-2,-2.6655797E-2,-2.0680066E-2,-1.3669588E-2,-1.7779605E-2,-1.4056894E-2,-1.9130774E-2,-1.548412E-2,-6.0589127E-3,-1.710139E-2,-1.1781934E-2,-9.904258E-3,-1.3372761E-3,-6.5764687E-3,6.1205286E-3,4.7106473E-3,3.535076E-2,-6.5723653E-3,2.6699936E-3,-2.6151582E-4,9.450315E-3,4.226716E-2,1.3329141E-2,7.9589196E-2,2.664555E-2,1.2860228E-2,2.7649108E-2,2.7652496E-2,7.377639E-2,-1.982758E-2,-3.443327E-2,-3.2114673E-2,-1.5699388E-2,-3.0076042E-2,-1.4288768E-2,-8.320245E-3,-9.657989E-4,-3.00593E-3,-1.0889071E-2,6.063191E-3,-4.292077E-3,6.2559294E-3,-1.4190167E-2,-1.115795E-2,1.6031398E-2,-1.2057803E-2,-3.9086446E-2,4.7657685E-3,1.55473715E-2,2.344976E-3,1.6020684E-2,5.655031E-3,2.8500244E-2,-2.3000484E-2,-5.9102927E-3,2.4386762E-2,3.4498814E-2,4.0352724E-2,9.508413E-3,4.5733538E-2,5.286623E-2,1.1029277E-1,6.0906347E-2,2.1125503E-1,1.3789669E-1,7.286503E-2,4.6419647E-2,1.1054937E-1,6.1260223E-2,2.6576263E-1,2.0905116E-1,1.700529E-1,1.1090453E-1,1.162846E-1,1.8088944E-1,1.2385366E-1,3.58323E-2,2.571922E-1,3.1310934E-1,2.4078524E-1,6.50657E-2,3.131364E-2,1.0813699E-1,1.857649E-1,8.1188224E-2,3.1924832E-1,1.5296571E-1,3.7120268E-1,3.0985022E-1,3.1027016E-1,1.6169651E-1],"categories":[],"categories_nodes":[],"categories_segments":[],"categories_sizes":[],"default_left":[0,0,0,0,0,0,0,0,0,0,0,0,0,0,0,0,0,0,0,0,0,0,0,0,0,0,0,0,0,0,0,0,0,0,0,0,0,0,0,0,0,0,0,0,0,0,0,0,0,0,0,0,0,0,0,0,0,0,0,0,0,0,0,0,0,0,0,0,0,0,0,0,0,0,0,0,0,0,0,0,0,0,0,0,0,0,0,0,0,0,0,0,0,0,0,0,0,0,0,0,0,0,0,0,0,0,0,0,0,0,0,0,0,0,0,0,0,0,0,0,0,0,0,0,0,0,0,0,0,0,0,0,0,0,0,0,0,0,0,0,0,0,0,0,0,0,0,0,0,0,0,0,0,0,0,0,0,0,0,0,0,0,0,0,0,0,0,0,0,0,0,0,0,0,0,0,0,0,0,0,0,0,0,0,0,0,0,0,0,0,0,0,0,0,0,0,0,0,0,0,0,0,0,0,0,0,0,0,0,0,0,0,0,0,0,0,0,0,0,0,0,0,0,0,0,0,0,0,0,0,0,0,0,0,0],"id":4,"left_children":[1,3,5,7,9,11,13,15,17,19,21,23,25,27,29,31,33,35,37,39,41,43,45,47,49,51,53,55,57,59,61,-1,63,-1,65,67,69,71,73,75,77,79,81,83,85,87,89,91,93,95,97,99,101,103,105,107,109,111,113,115,117,119,121,-1,123,125,127,-1,-1,129,131,133,135,137,139,141,143,145,147,149,151,153,155,157,159,161,163,165,167,169,171,173,175,177,179,181,183,185,187,189,191,193,195,197,199,201,203,205,207,209,211,213,215,217,219,221,223,225,227,229,231,233,-1,-1,-1,-1,-1,-1,-1,-1,-1,-1,-1,-1,-1,-1,-1,-1,-1,-1,-1,-1,-1,-1,-1,-1,-1,-1,-1,-1,-1,-1,-1,-1,-1,-1,-1,-1,-1,-1,-1,-1,-1,-1,-1,-1,-1,-1,-1,-1,-1,-1,-1,-1,-1,-1,-1,-1,-1,-1,-1,-1,-1,-1,-1,-1,-1,-1,-1,-1,-1,-1,-1,-1,-1,-1,-1,-1,-1,-1,-1,-1,-1,-1,-1,-1,-1,-1,-1,-1,-1,-1,-1,-1,-1,-1,-1,-1,-1,-1,-1,-1,-1,-1,-1,-1,-1,-1,-1,-1,-1,-1,-1,-1,-1],"loss_changes":[9.852315E3,8.224176E2,9.608398E3,4.150537E1,8.2795447E2,9.011366E1,1.979748E3,2.1123047E0,4.2208954E1,6.889496E0,1.686582E2,2.3915998E1,2.6272125E1,3.6587305E2,1.435957E2,7.93457E-2,2.5085907E0,4.4651794E-1,8.491245E0,1.1235962E0,2.1476517E0,1.8287971E1,5.1052002E1,3.8992672E0,1.0540531E1,3.7380257E0,7.611557E0,7.5614746E1,7.613672E1,6.986182E1,1.8983398E1,0E0,1.5722656E-1,0E0,4.958992E-1,4.7973633E-2,9.044647E-2,4.117513E0,2.7589264E0,2.0793915E-1,9.4221115E-1,4.0735817E-1,1.0419331E0,2.0124031E1,1.2328291E0,3.5266052E1,2.3712244E0,4.7439575E-1,1.9100842E0,1.8135412E0,3.5331516E0,2.0019662E0,9.7262955E-1,3.722355E0,7.554245E-1,6.5119385E1,1.5914459E1,4.299536E1,2.6751465E1,5.516455E1,6.620041E0,3.6586914E0,1.2026596E1,0E0,3.8482666E-2,4.8525906E-1,1.4341736E-1,0E0,0E0,9.043202E-2,3.691864E-2,5.4199367E0,1.0576E0,2.3424E0,7.792221E-1,1.1623383E-2,1.7788315E-1,9.208679E-2,3.5559464E-1,2.7581787E-1,5.481658E-1,2.2841167E-1,9.944067E-1,1.0044668E0,1.4510803E1,1.8759358E-1,2.2709584E-1,3.7575417E0,3.0125488E1,8.5536146E-1,1.6803017E0,1.4407039E-1,2.65131E-1,6.253891E-1,1.4615088E0,7.656534E-1,8.965266E-1,1.5440972E0,1.6202402E0,3.9223814E-1,8.060427E-1,2.514639E-1,2.6749992E-1,8.512658E-2,1.7558517E0,7.568641E-1,1.1808014E-1,1.667273E1,5.791382E1,2.5278168E0,8.505295E0,3.4302246E1,5.3413544E0,1.8569214E1,7.696251E0,3.9537598E1,1.2474243E1,1.4237604E0,3.398018E0,5.7404785E0,2.1242676E0,3.7769623E0,0E0,0E0,0E0,0E0,0E0,0E0,0E0,0E0,0E0,0E0,0E0,0E0,0E0,0E0,0E0,0E0,0E0,0E0,0E0,0E0,0E0,0E0,0E0,0E0,0E0,0E0,0E0,0E0,0E0,0E0,0E0,0E0,0E0,0E0,0E0,0E0,0E0,0E0,0E0,0E0,0E0,0E0,0E0,0E0,0E0,0E0,0E0,0E0,0E0,0E0,0E0,0E0,0E0,0E0,0E0,0E0,0E0,0E0,0E0,0E0,0E0,0E0,0E0,0E0,0E0,0E0,0E0,0E0,0E0,0E0,0E0,0E0,0E0,0E0,0E0,0E0,0E0,0E0,0E0,0E0,0E0,0E0,0E0,0E0,0E0,0E0,0E0,0E0,0E0,0E0,0E0,0E0,0E0,0E0,0E0,0E0,0E0,0E0,0E0,0E0,0E0,0E0,0E0,0E0,0E0,0E0,0E0,0E0,0E0,0E0,0E0,0E0,0E0],"parents":[2147483647,0,0,1,1,2,2,3,3,4,4,5,5,6,6,7,7,8,8,9,9,10,10,11,11,12,12,13,13,14,14,15,15,16,16,17,17,18,18,19,19,20,20,21,21,22,22,23,23,24,24,25,25,26,26,27,27,28,28,29,29,30,30,32,32,34,34,35,35,36,36,37,37,38,38,39,39,40,40,41,41,42,42,43,43,44,44,45,45,46,46,47,47,48,48,49,49,50,50,51,51,52,52,53,53,54,54,55,55,56,56,57,57,58,58,59,59,60,60,61,61,62,62,64,64,65,65,66,66,69,69,70,70,71,71,72,72,73,73,74,74,75,75,76,76,77,77,78,78,79,79,80,80,81,81,82,82,83,83,84,84,85,85,86,86,87,87,88,88,89,89,90,90,91,91,92,92,93,93,94,94,95,95,96,96,97,97,98,98,99,99,100,100,101,101,102,102,103,103,104,104,105,105,106,106,107,107,108,108,109,109,110,110,111,111,112,112,113,113,114,114,115,115,116,116,117,117,118,118,119,119,120,120,121,121],"right_children":[2,4,6,8,10,12,14,16,18,20,22,24,26,28,30,32,34,36,38,40,42,44,46,48,50,52,54,56,58,60,62,-1,64,-1,66,68,70,72,74,76,78,80,82,84,86,88,90,92,94,96,98,100,102,104,106,108,110,112,114,116,118,120,122,-1,124,126,128,-1,-1,130,132,134,136,138,140,142,144,146,148,150,152,154,156,158,160,162,164,166,168,170,172,174,176,178,180,182,184,186,188,190,192,194,196,198,200,202,204,206,208,210,212,214,216,218,220,222,224,226,228,230,232,234,-1,-1,-1,-1,-1,-1,-1,-1,-1,-1,-1,-1,-1,-1,-1,-1,-1,-1,-1,-1,-1,-1,-1,-1,-1,-1,-1,-1,-1,-1,-1,-1,-1,-1,-1,-1,-1,-1,-1,-1,-1,-1,-1,-1,-1,-1,-1,-1,-1,-1,-1,-1,-1,-1,-1,-1,-1,-1,-1,-1,-1,-1,-1,-1,-1,-1,-1,-1,-1,-1,-1,-1,-1,-1,-1,-1,-1,-1,-1,-1,-1,-1,-1,-1,-1,-1,-1,-1,-1,-1,-1,-1,-1,-1,-1,-1,-1,-1,-1,-1,-1,-1,-1,-1,-1,-1,-1,-1,-1,-1,-1,-1,-1],"split_conditions":[2.101E2,5.71E1,1E0,2.0375E1,1E0,4.72E2,4.65325E2,7.1E0,1E0,2.74075E2,1.18275E2,1E0,1E0,3.305E2,6.1315E2,1.2249999E0,1E0,1.26875E2,9.6718475E5,1.4005E2,1E0,2.6902374E2,2.6742276E2,3.8695E2,4.112E2,1.7379446E6,6.1315E2,2.3803125E2,-5E-2,2.5E-1,1.85975E2,-2.580893E-2,1E0,-2.5182132E-2,1.7953E2,2.75625E2,9.82875E2,2.008125E2,9.2E0,1E0,1E0,4.7385E2,1.3235E2,8.4708E1,8.43E1,9.421575E1,1.1295E2,2.74125E2,2.758E2,2.9215E2,3.61E2,2.76275E2,2.8067305E6,9.9407495E2,9.967E2,1.1381375E2,2.48E2,2.399895E2,2.5E-1,8.5E-1,1.002775E3,1.0097E3,2.875E0,-2.5721822E-2,8.472675E3,3.1400002E1,1.4825E1,-2.5499552E-2,-2.3871616E-2,9.7735E2,1E2,7.359425E1,3.3875E1,4.7E0,1.7017E3,2.747E2,1.24764E2,2.7405E2,1.3985875E2,9.43E1,1.181685E5,3.29275E2,5.1035E2,5.663675E1,3.7E0,9.015646E5,1.008675E3,1.95E0,5E-1,1.67925E2,9.15E0,2E0,9.84225E2,1.00695E3,6.41625E2,1.46579E2,1.8488574E2,5E-1,9.9735E2,7.73E1,2.825311E6,-2.05E0,1.4E0,5.0375E1,5.32875E2,-5E-2,6.82775E2,1.45E0,2.89E1,2.868E2,2.7141425E2,3.555E1,2.5696774E2,9.9042505E2,2.88475E2,9.9835E2,8.075E1,4.982305E4,1.01992505E3,4.85E0,2.06387E2,1.820755E2,1.0078287E-1,-2.2528103E-2,-2.4562236E-2,-6.429251E-3,-1.7706389E-2,-2.264874E-2,-1.895553E-2,-1.7416067E-2,-2.7193504E-3,-1.9915648E-2,-2.2220341E-2,-1.4151414E-2,1.42215E-3,-1.6870677E-2,-8.770584E-3,1.785872E-2,5.350178E-2,-6.9435383E-3,1.1850552E-2,-2.63326E-2,-2.3359818E-2,-1.852549E-2,-2.2140685E-2,-2.6655797E-2,-2.0680066E-2,-1.3669588E-2,-1.7779605E-2,-1.4056894E-2,-1.9130774E-2,-1.548412E-2,-6.0589127E-3,-1.710139E-2,-1.1781934E-2,-9.904258E-3,-1.3372761E-3,-6.5764687E-3,6.1205286E-3,4.7106473E-3,3.535076E-2,-6.5723653E-3,2.6699936E-3,-2.6151582E-4,9.450315E-3,4.226716E-2,1.3329141E-2,7.9589196E-2,2.664555E-2,1.2860228E-2,2.7649108E-2,2.7652496E-2,7.377639E-2,-1.982758E-2,-3.443327E-2,-3.2114673E-2,-1.5699388E-2,-3.0076042E-2,-1.4288768E-2,-8.320245E-3,-9.657989E-4,-3.00593E-3,-1.0889071E-2,6.063191E-3,-4.292077E-3,6.2559294E-3,-1.4190167E-2,-1.115795E-2,1.6031398E-2,-1.2057803E-2,-3.9086446E-2,4.7657685E-3,1.55473715E-2,2.344976E-3,1.6020684E-2,5.655031E-3,2.8500244E-2,-2.3000484E-2,-5.9102927E-3,2.4386762E-2,3.4498814E-2,4.0352724E-2,9.508413E-3,4.5733538E-2,5.286623E-2,1.1029277E-1,6.0906347E-2,2.1125503E-1,1.3789669E-1,7.286503E-2,4.6419647E-2,1.1054937E-1,6.1260223E-2,2.6576263E-1,2.0905116E-1,1.700529E-1,1.1090453E-1,1.162846E-1,1.8088944E-1,1.2385366E-1,3.58323E-2,2.571922E-1,3.1310934E-1,2.4078524E-1,6.50657E-2,3.131364E-2,1.0813699E-1,1.857649E-1,8.1188224E-2,3.1924832E-1,1.5296571E-1,3.7120268E-1,3.0985022E-1,3.1027016E-1,1.6169651E-1],"split_indices":[44,44,33,44,33,44,44,44,33,3,44,34,34,44,44,44,33,3,2,3,34,23,23,3,3,10,44,23,30,16,7,0,33,0,23,26,14,23,0,34,34,3,44,23,44,23,7,26,26,44,44,26,2,14,17,23,44,23,16,30,14,14,29,0,2,27,44,0,0,22,27,23,44,30,28,26,23,26,23,27,10,3,3,23,0,2,14,30,16,44,0,29,14,22,3,23,23,16,14,27,2,30,29,27,44,30,44,30,27,26,23,27,23,17,26,17,21,28,14,29,23,23,0,0,0,0,0,0,0,0,0,0,0,0,0,0,0,0,0,0,0,0,0,0,0,0,0,0,0,0,0,0,0,0,0,0,0,0,0,0,0,0,0,0,0,0,0,0,0,0,0,0,0,0,0,0,0,0,0,0,0,0,0,0,0,0,0,0,0,0,0,0,0,0,0,0,0,0,0,0,0,0,0,0,0,0,0,0,0,0,0,0,0,0,0,0,0,0,0,0,0,0,0,0,0,0,0,0,0,0,0,0,0,0,0],"split_type":[0,0,0,0,0,0,0,0,0,0,0,0,0,0,0,0,0,0,0,0,0,0,0,0,0,0,0,0,0,0,0,0,0,0,0,0,0,0,0,0,0,0,0,0,0,0,0,0,0,0,0,0,0,0,0,0,0,0,0,0,0,0,0,0,0,0,0,0,0,0,0,0,0,0,0,0,0,0,0,0,0,0,0,0,0,0,0,0,0,0,0,0,0,0,0,0,0,0,0,0,0,0,0,0,0,0,0,0,0,0,0,0,0,0,0,0,0,0,0,0,0,0,0,0,0,0,0,0,0,0,0,0,0,0,0,0,0,0,0,0,0,0,0,0,0,0,0,0,0,0,0,0,0,0,0,0,0,0,0,0,0,0,0,0,0,0,0,0,0,0,0,0,0,0,0,0,0,0,0,0,0,0,0,0,0,0,0,0,0,0,0,0,0,0,0,0,0,0,0,0,0,0,0,0,0,0,0,0,0,0,0,0,0,0,0,0,0,0,0,0,0,0,0,0,0,0,0,0,0,0,0,0,0,0,0],"sum_hessian":[6.1635E4,5.0848E4,1.0787E4,4.1565E4,9.283E3,6.2E3,4.587E3,3.6839E4,4.726E3,5.304E3,3.979E3,4.326E3,1.874E3,3.176E3,1.411E3,3.3881E4,2.958E3,2.762E3,1.964E3,3.28E3,2.024E3,1.965E3,2.014E3,2.028E3,2.298E3,8.05E2,1.069E3,1.817E3,1.359E3,1.006E3,4.05E2,3.1148E4,2.733E3,1.854E3,1.104E3,2.029E3,7.33E2,1.786E3,1.78E2,1.44E3,1.84E3,9.67E2,1.057E3,1.648E3,3.17E2,1.764E3,2.5E2,6.19E2,1.409E3,8.57E2,1.441E3,5.17E2,2.88E2,7.35E2,3.34E2,1.411E3,4.06E2,6.56E2,7.03E2,9.59E2,4.7E1,3.74E2,3.1E1,1.73E3,1.003E3,5.32E2,5.72E2,5.56E2,1.473E3,2.3E1,7.1E2,1.133E3,6.53E2,9E1,8.8E1,6.06E2,8.34E2,8.44E2,9.96E2,6.01E2,3.66E2,4.75E2,5.82E2,2.8E2,1.368E3,1.8E2,1.37E2,2.75E2,1.489E3,2.12E2,3.8E1,3.9E1,5.8E2,1.34E2,1.275E3,5.18E2,3.39E2,7.59E2,6.82E2,2.5E1,4.92E2,1.85E2,1.03E2,1.6E1,7.19E2,4.8E1,2.86E2,3.64E2,1.047E3,1.63E2,2.43E2,5.67E2,8.9E1,6.28E2,7.5E1,7E2,2.59E2,1.1E1,3.6E1,6.9E1,3.05E2,2.5E1,6E0,3.57E2,6.46E2,4.3E1,4.89E2,3.42E2,2.3E2,1.7E1,6E0,2.31E2,4.79E2,3.05E2,8.28E2,3.19E2,3.34E2,6.4E1,2.6E1,3.8E1,5E1,9E1,5.16E2,2.37E2,5.97E2,3.9E1,8.05E2,3.46E2,6.5E2,1.63E2,4.38E2,2.85E2,8.1E1,1.13E2,3.62E2,3.67E2,2.15E2,9.2E1,1.88E2,1.78E2,1.19E3,1.55E2,2.5E1,3.1E1,1.06E2,2.17E2,5.8E1,1.371E3,1.18E2,1.59E2,5.3E1,2.6E1,1.2E1,2E1,1.9E1,1E1,5.7E2,3.5E1,9.9E1,8.86E2,3.89E2,2.04E2,3.14E2,1.93E2,1.46E2,7.21E2,3.8E1,2.2E1,6.6E2,1.7E1,8E0,4.09E2,8.3E1,1.5E1,1.7E2,6E0,9.7E1,1.1E1,5E0,3.56E2,3.63E2,3.7E1,1.1E1,1.67E2,1.19E2,2.66E2,9.8E1,1.26E2,9.21E2,8.1E1,8.2E1,1.95E2,4.8E1,1.78E2,3.89E2,5.5E1,3.4E1,5.6E1,5.72E2,6.2E1,1.3E1,2.28E2,4.72E2,2.54E2,5E0,6E0,5E0,3E1,6E0,6.4E1,5E0,2.58E2,4.7E1,1.9E1,6E0],"tree_param":{"num_deleted":"0","num_feature":"48","num_nodes":"235","size_leaf_vector":"1"}},{"base_weights":[4.0047598E-4,-1.6314189E-1,7.931488E-1,-2.1552397E-1,1.02604166E-1,1.0878911E0,-3.65539E-2,-2.2746332E-1,-1.0659211E-1,2.0142184E-1,-1.7455165E-1,1.7905428E0,1.3085382E-1,-9.354478E-2,8.804086E-2,-2.311911E-1,-1.8982475E-1,-6.5619074E-2,-1.9699445E-1,4.412699E-1,-1.287105E-1,-2.0159696E-1,-1.456549E-1,1.391409E0,2.6582105E0,5.2651327E-2,3.2692862E-1,-1.5049487E-1,-6.878429E-2,5.4241184E-2,2.044149E-1,-2.3201408E-2,-2.1826799E-1,-1.7302117E-1,-2.2312367E-2,1.5027515E-2,-2.0760816E-1,-2.0695648E-1,-1.6770276E-1,2.9915738E-1,6.692163E-1,-1.5550996E-1,-6.9144316E-2,-2.2981312E-2,-1.9574767E-1,-1.6075243E-1,-1.1466681E-1,1.0405793E0,1.6496296E0,2.3400037E0,3.0329773E0,2.7663973E-3,1.3647075E-1,2.7399227E-1,4.2155415E-1,-2.547448E-1,-1.4304553E-1,-1.6946702E-1,-5.7492685E-2,-1.3887373E-1,6.632049E-2,1.5645638E-1,2.5028756E-1,-2.1300994E-1,-2.297411E-2,-1.3148934E-1,-2.2549923E-1,-2.0980831E-2,1.6917428E-1,-2.1593383E-2,-1.8771201E-1,-2.152049E-2,-2.0098856E-2,-1.7105909E-1,-9.8345175E-2,1.7188038E-1,3.7919948E-1,8.09032E-1,5.1611984E-1,-1.7961974E-1,-1.3037993E-1,-1.03133015E-1,-4.5179132E-2,-2.1486893E-2,-1.8983603E-1,-1.4572862E-1,-1.8719316E-1,-1.3320385E-1,-5.691009E-2,1.0927175E0,3.5670474E-1,1.5317266E0,1.9760153E0,2.4911592E0,1.8982662E0,3.0509095E0,9.62746E-2,-2.8885767E-2,8.283448E-2,-5.815834E-2,1.4655115E-1,2.8140962E-1,1.6470214E-2,4.4795862E-1,3.3598924E-1,-1.96331E-2,-3.3668675E-2,-1.5459833E-1,-1.19209416E-1,-1.2901284E-1,-2.6029766E-1,-7.6969E-2,-1.9738695E-2,-2.049742E-1,7.992514E-3,7.138565E-2,-1.0165461E-1,9.6663095E-2,1.6367564E-1,1.2242749E-1,2.6504656E-2,-1.9875972E-2,-2.2862231E-2,-5.440687E-3,-1.4554431E-2,-2.3402287E-2,-2.1889044E-2,-6.1218506E-3,7.7313394E-3,1.4114886E-2,6.0285266E-2,-1.8899001E-2,-8.975758E-3,-1.7829614E-2,-1.3717115E-2,-4.216771E-3,-1.2291994E-2,1.1327202E-2,3.4854945E-2,3.4564666E-2,6.643273E-2,7.6231755E-2,1.4461794E-1,3.7718322E-2,6.384973E-2,-1.7419335E-2,-2.2264186E-2,-1.4669815E-2,-1.0302053E-2,-1.1437612E-2,-6.047594E-3,-8.932075E-3,-1.1132511E-3,-1.6710395E-2,-1.9278869E-2,-2.691919E-2,-1.4070714E-2,-1.800777E-2,-2.1671316E-2,-8.152409E-3,-1.4901749E-2,7.244186E-3,-8.448161E-3,1.2332976E-1,9.2157915E-2,1.2428745E-1,2.5981832E-2,1.5731175E-1,7.185518E-2,2.0791133E-1,1.4446484E-1,2.7728876E-1,2.1575053E-1,2.6052147E-1,1.7962545E-1,2.898651E-1,3.3336487E-1,-6.465198E-3,7.1263195E-5,9.93523E-3,-7.615567E-3,2.0192623E-2,-1.2156397E-2,1.1918667E-2,1.8592428E-2,3.127371E-2,2.1764424E-2,-1.4119158E-2,8.797025E-3,4.1367255E-2,4.887699E-2,3.702562E-2,1.2299375E-2,-2.0369109E-2,-1.5015358E-2,-1.0294674E-2,-1.5164219E-2,-2.225214E-2,-7.7161314E-3,-1.9252723E-2,-3.4992035E-2,-1.1280957E-2,-5.7783313E-3,4.8926375E-3,-3.747983E-3,-1.2407027E-2,-3.0745119E-2,5.064746E-3,1.2650946E-2,1.3004723E-3,-1.4353329E-2,3.8067747E-3,1.4144944E-2,1.3431832E-2,1.8212654E-2,-5.466414E-4,2.5123248E-2],"categories":[],"categories_nodes":[],"categories_segments":[],"categories_sizes":[],"default_left":[0,0,0,0,0,0,0,0,0,0,0,0,0,0,0,0,0,0,0,0,0,0,0,0,0,0,0,0,0,0,0,0,0,0,0,0,0,0,0,0,0,0,0,0,0,0,0,0,0,0,0,0,0,0,0,0,0,0,0,0,0,0,0,0,0,0,0,0,0,0,0,0,0,0,0,0,0,0,0,0,0,0,0,0,0,0,0,0,0,0,0,0,0,0,0,0,0,0,0,0,0,0,0,0,0,0,0,0,0,0,0,0,0,0,0,0,0,0,0,0,0,0,0,0,0,0,0,0,0,0,0,0,0,0,0,0,0,0,0,0,0,0,0,0,0,0,0,0,0,0,0,0,0,0,0,0,0,0,0,0,0,0,0,0,0,0,0,0,0,0,0,0,0,0,0,0,0,0,0,0,0,0,0,0,0,0,0,0,0,0,0,0,0,0,0,0,0,0,0,0,0,0,0,0,0,0,0,0,0,0,0,0,0,0,0,0,0],"id":5,"left_children":[1,3,5,7,9,11,13,15,17,19,21,23,25,27,29,31,33,35,37,39,41,43,45,47,49,51,53,55,57,59,61,-1,63,65,-1,67,69,71,73,75,77,79,81,-1,83,85,87,89,91,93,95,97,99,101,103,105,107,109,111,113,115,117,119,121,-1,123,125,127,129,-1,131,-1,-1,133,135,137,139,141,143,145,147,149,151,-1,153,155,157,159,161,163,165,167,169,171,173,175,-1,177,179,181,183,185,187,189,191,-1,-1,193,195,197,199,201,203,205,-1,207,209,211,213,215,-1,-1,-1,-1,-1,-1,-1,-1,-1,-1,-1,-1,-1,-1,-1,-1,-1,-1,-1,-1,-1,-1,-1,-1,-1,-1,-1,-1,-1,-1,-1,-1,-1,-1,-1,-1,-1,-1,-1,-1,-1,-1,-1,-1,-1,-1,-1,-1,-1,-1,-1,-1,-1,-1,-1,-1,-1,-1,-1,-1,-1,-1,-1,-1,-1,-1,-1,-1,-1,-1,-1,-1,-1,-1,-1,-1,-1,-1,-1,-1,-1,-1,-1,-1,-1,-1,-1,-1,-1,-1,-1,-1,-1,-1,-1,-1,-1],"loss_changes":[7.99111E3,7.112953E2,2.5778252E3,5.5488403E1,2.3047687E2,5.2301904E3,1.963475E1,5.3531494E0,1.5610794E1,4.9122028E2,1.6993637E0,1.5495254E3,5.049146E1,2.664631E0,3.4031072E0,3.2141113E-1,1.904129E0,3.325664E1,3.4901428E-1,1.1619153E2,4.157299E0,1.4316177E-1,4.8356247E-1,2.7676123E2,1.6128906E2,9.850828E0,4.588066E0,4.093237E-1,1.495472E0,1.5814452E0,3.8983822E-1,0E0,7.847595E-2,5.0093765E0,0E0,1.0288756E1,1.3372803E-1,4.840851E-3,6.2090874E-2,2.2500168E1,2.9100342E1,1.0671654E0,6.5675163E-1,0E0,6.6711426E-2,2.583351E-1,3.7249613E-1,4.6177002E1,6.504834E1,4.655127E1,2.1007324E1,3.7481298E0,1.7330647E0,1.1509933E0,6.063576E-1,1.1100006E-1,1.2972164E-1,4.551239E-1,8.749683E-1,5.9489113E-1,5.475285E-1,2.648139E-2,1.524849E-1,2.798233E-1,0E0,1.3929081E0,6.2294006E-3,5.9492946E0,4.180971E0,0E0,2.2846222E-2,0E0,0E0,5.451393E-2,1.9666597E-2,8.834141E0,1.27717285E1,2.0297852E1,1.0997955E1,1.7506027E-1,3.8000202E-1,1.5374804E-1,7.173788E-1,0E0,1.7118454E-2,2.491684E-1,1.4957428E-2,2.0687294E-1,3.1996587E-1,2.804663E1,7.747713E0,4.275952E1,2.2525146E1,4.7503174E1,9.743835E0,1.7845703E1,0E0,1.1221861E0,1.1079316E0,7.501433E-1,8.7856865E-1,1.1065292E0,2.1533148E-1,1.5182114E-1,5.6025314E-1,0E0,0E0,4.7750473E-2,7.932854E-2,4.3859482E-1,1.7558146E-1,5.339556E-1,4.9763954E-1,2.1886885E-1,0E0,6.9892716E-1,9.310043E-2,2.8730854E-2,2.2120714E-2,1.9905382E-1,0E0,0E0,0E0,0E0,0E0,0E0,0E0,0E0,0E0,0E0,0E0,0E0,0E0,0E0,0E0,0E0,0E0,0E0,0E0,0E0,0E0,0E0,0E0,0E0,0E0,0E0,0E0,0E0,0E0,0E0,0E0,0E0,0E0,0E0,0E0,0E0,0E0,0E0,0E0,0E0,0E0,0E0,0E0,0E0,0E0,0E0,0E0,0E0,0E0,0E0,0E0,0E0,0E0,0E0,0E0,0E0,0E0,0E0,0E0,0E0,0E0,0E0,0E0,0E0,0E0,0E0,0E0,0E0,0E0,0E0,0E0,0E0,0E0,0E0,0E0,0E0,0E0,0E0,0E0,0E0,0E0,0E0,0E0,0E0,0E0,0E0,0E0,0E0,0E0,0E0,0E0,0E0,0E0,0E0,0E0,0E0,0E0],"parents":[2147483647,0,0,1,1,2,2,3,3,4,4,5,5,6,6,7,7,8,8,9,9,10,10,11,11,12,12,13,13,14,14,15,15,16,16,17,17,18,18,19,19,20,20,21,21,22,22,23,23,24,24,25,25,26,26,27,27,28,28,29,29,30,30,32,32,33,33,35,35,36,36,37,37,38,38,39,39,40,40,41,41,42,42,44,44,45,45,46,46,47,47,48,48,49,49,50,50,51,51,52,52,53,53,54,54,55,55,56,56,57,57,58,58,59,59,60,60,61,61,62,62,63,63,65,65,66,66,67,67,68,68,70,70,73,73,74,74,75,75,76,76,77,77,78,78,79,79,80,80,81,81,82,82,84,84,85,85,86,86,87,87,88,88,89,89,90,90,91,91,92,92,93,93,94,94,95,95,97,97,98,98,99,99,100,100,101,101,102,102,103,103,104,104,107,107,108,108,109,109,110,110,111,111,112,112,113,113,115,115,116,116,117,117,118,118,119,119],"right_children":[2,4,6,8,10,12,14,16,18,20,22,24,26,28,30,32,34,36,38,40,42,44,46,48,50,52,54,56,58,60,62,-1,64,66,-1,68,70,72,74,76,78,80,82,-1,84,86,88,90,92,94,96,98,100,102,104,106,108,110,112,114,116,118,120,122,-1,124,126,128,130,-1,132,-1,-1,134,136,138,140,142,144,146,148,150,152,-1,154,156,158,160,162,164,166,168,170,172,174,176,-1,178,180,182,184,186,188,190,192,-1,-1,194,196,198,200,202,204,206,-1,208,210,212,214,216,-1,-1,-1,-1,-1,-1,-1,-1,-1,-1,-1,-1,-1,-1,-1,-1,-1,-1,-1,-1,-1,-1,-1,-1,-1,-1,-1,-1,-1,-1,-1,-1,-1,-1,-1,-1,-1,-1,-1,-1,-1,-1,-1,-1,-1,-1,-1,-1,-1,-1,-1,-1,-1,-1,-1,-1,-1,-1,-1,-1,-1,-1,-1,-1,-1,-1,-1,-1,-1,-1,-1,-1,-1,-1,-1,-1,-1,-1,-1,-1,-1,-1,-1,-1,-1,-1,-1,-1,-1,-1,-1,-1,-1,-1,-1,-1,-1],"split_conditions":[2.1645001E2,7.0275E1,1E0,2.9425001E1,1E0,1E0,4.59225E2,1.1349999E1,1E0,1E0,2.4915E2,4.65325E2,4.9402502E2,3.8695E2,5.253E2,4.2E0,1E0,1E0,1.7E2,1.47375E2,3.18775E2,2.75925E2,4.7385E2,2.99175E2,4.41E2,3.61E2,6.1315E2,2.74125E2,2.758E2,2.7705E2,7.65275E2,-2.3201408E-2,1E0,1E0,-2.2312367E-2,2.27675E2,1.25E-1,5.8085003E0,4.5000002E-1,9.5775E1,7.8250003E0,1.30997505E1,1.3235E2,-2.2981312E-2,4.66E1,9.825E1,1.181685E5,1E-2,2.7625E2,3.375E0,5E-1,5.43275E2,2.7515002E2,1.4999999E-2,4.3E1,2.225E0,3.351E2,1.91325E2,6.161E2,3.9715E2,2E-2,2.76575E2,5.488E2,1E0,-2.297411E-2,3.715E1,5.025E0,1.61E1,7.275E0,-2.1593383E-2,6.25E-1,-2.152049E-2,-2.0098856E-2,6.005E1,3.575E0,1.5E-1,2.2500001E-1,1.36E2,2.14755E1,1E0,1.67925E2,3E-1,2.74265E1,-2.1486893E-2,-1.425E0,2.73625E2,1.30025E2,9.935E1,5.7E0,7.925E0,7.780525E4,5E-1,2.91725E2,2.879E2,2.45E1,5.488E2,9.62746E-2,2.7205E2,2.5E-3,7.3E0,6.094E2,3E0,2.0249999E0,6.82775E2,4E0,-1.96331E-2,-3.3668675E-2,2.762E2,5.455E1,2.74125E2,3.7515E2,5.4421225E5,2.7625E2,-1E0,7.992514E-3,4.386525E1,1.1848429E6,1.9284161E6,7.0995E2,1.115E1,2.6504656E-2,-1.9875972E-2,-2.2862231E-2,-5.440687E-3,-1.4554431E-2,-2.3402287E-2,-2.1889044E-2,-6.1218506E-3,7.7313394E-3,1.4114886E-2,6.0285266E-2,-1.8899001E-2,-8.975758E-3,-1.7829614E-2,-1.3717115E-2,-4.216771E-3,-1.2291994E-2,1.1327202E-2,3.4854945E-2,3.4564666E-2,6.643273E-2,7.6231755E-2,1.4461794E-1,3.7718322E-2,6.384973E-2,-1.7419335E-2,-2.2264186E-2,-1.4669815E-2,-1.0302053E-2,-1.1437612E-2,-6.047594E-3,-8.932075E-3,-1.1132511E-3,-1.6710395E-2,-1.9278869E-2,-2.691919E-2,-1.4070714E-2,-1.800777E-2,-2.1671316E-2,-8.152409E-3,-1.4901749E-2,7.244186E-3,-8.448161E-3,1.2332976E-1,9.2157915E-2,1.2428745E-1,2.5981832E-2,1.5731175E-1,7.185518E-2,2.0791133E-1,1.4446484E-1,2.7728876E-1,2.1575053E-1,2.6052147E-1,1.7962545E-1,2.898651E-1,3.3336487E-1,-6.465198E-3,7.1263195E-5,9.93523E-3,-7.615567E-3,2.0192623E-2,-1.2156397E-2,1.1918667E-2,1.8592428E-2,3.127371E-2,2.1764424E-2,-1.4119158E-2,8.797025E-3,4.1367255E-2,4.887699E-2,3.702562E-2,1.2299375E-2,-2.0369109E-2,-1.5015358E-2,-1.0294674E-2,-1.5164219E-2,-2.225214E-2,-7.7161314E-3,-1.9252723E-2,-3.4992035E-2,-1.1280957E-2,-5.7783313E-3,4.8926375E-3,-3.747983E-3,-1.2407027E-2,-3.0745119E-2,5.064746E-3,1.2650946E-2,1.3004723E-3,-1.4353329E-2,3.8067747E-3,1.4144944E-2,1.3431832E-2,1.8212654E-2,-5.466414E-4,2.5123248E-2],"split_indices":[44,44,35,44,35,34,44,44,34,34,3,44,44,3,9,44,34,35,3,44,3,26,3,44,9,44,44,26,26,26,3,0,34,35,0,3,25,24,25,44,0,24,44,0,7,11,10,15,9,29,16,3,26,15,11,29,3,7,3,9,15,6,9,35,0,11,0,9,29,0,25,0,0,7,29,25,25,9,24,46,44,25,24,0,31,26,7,11,0,0,10,16,26,26,11,9,0,44,15,11,3,29,29,44,29,0,0,26,11,26,44,10,6,31,0,24,10,10,3,0,0,0,0,0,0,0,0,0,0,0,0,0,0,0,0,0,0,0,0,0,0,0,0,0,0,0,0,0,0,0,0,0,0,0,0,0,0,0,0,0,0,0,0,0,0,0,0,0,0,0,0,0,0,0,0,0,0,0,0,0,0,0,0,0,0,0,0,0,0,0,0,0,0,0,0,0,0,0,0,0,0,0,0,0,0,0,0,0,0,0,0,0,0,0,0,0,0],"split_type":[0,0,0,0,0,0,0,0,0,0,0,0,0,0,0,0,0,0,0,0,0,0,0,0,0,0,0,0,0,0,0,0,0,0,0,0,0,0,0,0,0,0,0,0,0,0,0,0,0,0,0,0,0,0,0,0,0,0,0,0,0,0,0,0,0,0,0,0,0,0,0,0,0,0,0,0,0,0,0,0,0,0,0,0,0,0,0,0,0,0,0,0,0,0,0,0,0,0,0,0,0,0,0,0,0,0,0,0,0,0,0,0,0,0,0,0,0,0,0,0,0,0,0,0,0,0,0,0,0,0,0,0,0,0,0,0,0,0,0,0,0,0,0,0,0,0,0,0,0,0,0,0,0,0,0,0,0,0,0,0,0,0,0,0,0,0,0,0,0,0,0,0,0,0,0,0,0,0,0,0,0,0,0,0,0,0,0,0,0,0,0,0,0,0,0,0,0,0,0,0,0,0,0,0,0,0,0,0,0,0,0,0,0,0,0,0,0],"sum_hessian":[6.1635E4,5.1095E4,1.054E4,4.2682E4,8.413E3,7.777E3,2.763E3,3.8465E4,4.217E3,6.202E3,2.211E3,4.484E3,3.293E3,1.896E3,8.67E2,3.4994E4,3.471E3,2.903E3,1.314E3,3.592E3,2.61E3,1.139E3,1.072E3,3.073E3,1.411E3,2.355E3,9.38E2,5.73E2,1.323E3,6.73E2,1.94E2,3.2883E4,2.111E3,2.311E3,1.16E3,1.852E3,1.051E3,9.76E2,3.38E2,2.214E3,1.378E3,1.799E3,8.11E2,1.89E2,9.5E2,7.18E2,3.54E2,1.305E3,1.768E3,7.67E2,6.44E2,1.477E3,8.78E2,6.04E2,3.34E2,3.6E1,5.37E2,1.32E2,1.191E3,3.9E1,6.34E2,9.7E1,9.7E1,1.461E3,6.5E2,1.292E3,1.019E3,1.502E3,3.5E2,7.34E2,3.17E2,3.95E2,5.81E2,3.21E2,1.7E1,8.56E2,1.358E3,7.18E2,6.6E2,9.15E2,8.84E2,3.34E2,4.77E2,2.16E2,7.34E2,4.62E2,2.56E2,2.67E2,8.7E1,1.212E3,9.3E1,1.303E3,4.65E2,5.68E2,1.99E2,6.38E2,6E0,1.059E3,4.18E2,4.3E1,8.35E2,5.87E2,1.7E1,2.52E2,8.2E1,2.3E1,1.3E1,3.58E2,1.79E2,9.3E1,3.9E1,7.85E2,4.06E2,3E1,9E0,6.16E2,1.8E1,1.2E1,8.5E1,1.1E1,8.6E1,7.71E2,6.9E2,2E2,1.092E3,4.3E2,5.89E2,1.066E3,4.36E2,3.3E2,2E1,3.12E2,5E0,2.61E2,6E1,6E0,1.1E1,6.44E2,2.12E2,1.217E3,1.41E2,6.71E2,4.7E1,3.11E2,3.49E2,8.17E2,9.8E1,5.51E2,3.33E2,2.63E2,7.1E1,2.07E2,2.7E2,9.1E1,6.43E2,1.6E1,4.46E2,2.12E2,4.4E1,6.4E1,2.03E2,1.5E1,7.2E1,6.62E2,5.5E2,8E0,8.5E1,1.239E3,6.4E1,3.87E2,7.8E1,3.04E2,2.64E2,2.2E1,1.77E2,4.22E2,2.16E2,4.79E2,5.8E2,3.79E2,3.9E1,8E0,3.5E1,4.95E2,3.4E2,3.91E2,1.96E2,5E0,1.2E1,1.43E2,1.09E2,7E1,1.2E1,2.6E1,3.32E2,1.22E2,5.7E1,3.2E1,6.1E1,2.4E1,1.5E1,2.72E2,5.13E2,8.3E1,3.23E2,1.8E1,1.2E1,4.49E2,1.67E2,5E0,1.3E1,6E0,6E0,3.6E1,4.9E1,6E0,5E0],"tree_param":{"num_deleted":"0","num_feature":"48","num_nodes":"217","size_leaf_vector":"1"}},{"base_weights":[4.030966E-4,-1.217631E-1,7.882016E-1,-1.8030077E-1,2.1165243E-1,6.605035E-2,1.7976457E0,-2.0030814E-1,-3.5326226E-4,-9.0209976E-2,5.9174395E-1,-3.9361108E-2,1.5687717E-1,1.4183713E0,2.4398224E0,-1.4615431E-1,-2.0688769E-1,-1.712317E-1,2.378684E-1,-1.18750714E-1,-1.9201493E-2,4.067183E-1,9.139997E-1,-1.0002252E-1,1.45193795E-2,5.171536E-2,2.4097073E-1,1.5421051E0,8.508213E-1,2.2251542E0,2.8679612E0,-1.9187462E-1,-9.357824E-2,-2.0843837E-1,-1.7441137E-1,-1.8460701E-1,-1.5039963E-1,1.2908626E-1,5.289688E-1,-1.450527E-1,-9.309498E-2,-7.4951276E-2,2.4151685E-2,2.1610437E-1,5.3813225E-1,7.875917E-1,1.2155627E0,-1.367101E-1,-6.383746E-2,-2.3889245E-2,1.039189E-1,-5.143142E-6,1.2295103E-1,1.9670627E-1,3.74701E-1,9.4958425E-1,1.6310588E0,4.9701047E-1,1.029223E0,2.335816E0,1.6879964E0,2.955242E0,2.3843525E-1,-1.993839E-2,-1.8256319E-1,-1.2642673E-1,-3.3848267E-2,-2.0911302E-2,-2.0337765E-1,-2.0397278E-2,-1.1929253E-1,-1.9623525E-1,-1.7633766E-1,-1.7322274E-1,-1.3178556E-1,2.9661608E-1,5.3948343E-2,9.450869E-1,3.4099165E-1,-1.637413E-1,-1.3024756E-1,-1.2760566E-1,-6.32697E-2,-4.7377523E-2,-1.2685306E-1,8.818383E-2,-3.906275E-2,1.1742685E-1,3.571347E-1,1.2295849E0,5.0953215E-1,8.4297216E-1,2.1107298E-1,7.387168E-1,1.3821183E0,-2.2066009E-1,-1.3094866E-1,-2.5868922E-1,-5.8833785E-2,-7.736486E-2,1.2345198E-3,-2.5229195E-2,1.1600763E-1,-1.8475229E-1,1.3932451E-2,6.859611E-2,1.8341507E-1,9.822169E-2,2.1581712E-1,3.907018E-1,2.8547776E-1,6.265852E-1,1.1642866E0,8.025723E-1,1.6858904E0,3.278593E-1,6.6375697E-1,1.0635554E0,2.9773462E-1,2.0593035E0,2.55856E0,1.4753073E0,1.9660823E0,2.5910192E0,3.02347E0,-1.926103E-2,-1.768112E-2,-1.4613743E-2,-6.3499906E-3,-9.924585E-3,2.0843334E-3,-2.0772038E-2,-1.9393979E-2,-7.6652826E-3,-1.6997963E-2,-2.1469682E-2,-1.9018024E-2,-1.5761308E-2,-1.8570242E-2,-1.8016485E-2,-1.5836159E-2,-1.0688386E-2,-1.4683174E-2,4.1988377E-2,2.3029645E-3,9.997349E-2,4.5918585E-3,1.3849543E-1,3.8823575E-2,5.3782243E-2,1.802143E-2,-1.5677484E-2,-1.8416649E-2,-2.3564298E-2,-1.2558666E-2,-1.4888257E-2,-1.049845E-2,-9.452655E-3,-2.591782E-3,-7.972516E-3,5.4102764E-4,-1.4905057E-2,-4.8296745E-3,3.795453E-3,1.3213298E-2,1.0035416E-4,-9.834579E-3,1.8982382E-2,4.179542E-4,6.925588E-2,2.8763065E-2,1.4736693E-1,5.706416E-3,-7.222382E-3,5.393024E-2,5.1043358E-2,9.383715E-2,1.5757311E-2,8.535592E-2,6.533019E-2,1.7801864E-1,1.5960588E-1,1.1519616E-1,-2.7957592E-2,-1.4427078E-2,-3.0956546E-2,-1.2809481E-2,-1.4956421E-2,-3.3085864E-2,-1.0521747E-2,-4.9889437E-3,-9.082799E-4,-1.3381152E-2,5.6649203E-4,-1.7353801E-2,1.8723378E-2,5.193185E-3,-7.5920895E-3,-3.2787863E-2,2.720798E-3,-8.966331E-3,5.4778694E-3,1.4678652E-2,1.51298195E-2,2.3505941E-2,-2.1558782E-2,1.1620911E-2,1.7468456E-2,2.570184E-2,4.0625673E-2,2.8253157E-2,1.311746E-2,2.9755969E-2,3.5156284E-2,7.586032E-2,1.289627E-1,6.81973E-2,5.9649657E-2,1.3503014E-1,1.7356496E-1,1.010785E-1,5.162844E-2,1.8305462E-2,1.0264131E-1,4.83767E-2,1.2166741E-1,8.886322E-2,5.236833E-2,2.9252402E-3,2.0867448E-1,2.7084742E-2,1.8689007E-1,2.6644662E-1,1.567063E-1,5.9373178E-2,2.0235999E-1,1.22507356E-1,2.8581008E-1,2.1550916E-1,3.065801E-1,2.362674E-1],"categories":[],"categories_nodes":[],"categories_segments":[],"categories_sizes":[],"default_left":[0,0,0,0,0,0,0,0,0,0,0,0,0,0,0,0,0,0,0,0,0,0,0,0,0,0,0,0,0,0,0,0,0,0,0,0,0,0,0,0,0,0,0,0,0,0,0,0,0,0,0,0,0,0,0,0,0,0,0,0,0,0,0,0,0,0,0,0,0,0,0,0,0,0,0,0,0,0,0,0,0,0,0,0,0,0,0,0,0,0,0,0,0,0,0,0,0,0,0,0,0,0,0,0,0,0,0,0,0,0,0,0,0,0,0,0,0,0,0,0,0,0,0,0,0,0,0,0,0,0,0,0,0,0,0,0,0,0,0,0,0,0,0,0,0,0,0,0,0,0,0,0,0,0,0,0,0,0,0,0,0,0,0,0,0,0,0,0,0,0,0,0,0,0,0,0,0,0,0,0,0,0,0,0,0,0,0,0,0,0,0,0,0,0,0,0,0,0,0,0,0,0,0,0,0,0,0,0,0,0,0,0,0,0,0,0,0,0,0,0,0,0,0,0,0,0,0,0,0,0,0,0,0,0,0,0,0,0,0,0,0],"id":6,"left_children":[1,3,5,7,9,11,13,15,17,19,21,23,25,27,29,31,33,35,37,39,41,43,45,47,49,51,53,55,57,59,61,63,65,67,69,71,73,75,77,79,81,83,85,87,89,91,93,95,97,99,101,103,105,107,109,111,113,115,117,119,121,123,-1,-1,125,127,129,-1,131,-1,133,135,137,139,141,143,145,147,149,151,153,155,157,159,161,163,165,167,169,171,173,175,177,179,181,183,185,187,189,191,193,-1,195,197,199,201,203,205,207,209,211,213,215,217,219,221,223,225,227,229,231,233,235,237,239,-1,-1,-1,-1,-1,-1,-1,-1,-1,-1,-1,-1,-1,-1,-1,-1,-1,-1,-1,-1,-1,-1,-1,-1,-1,-1,-1,-1,-1,-1,-1,-1,-1,-1,-1,-1,-1,-1,-1,-1,-1,-1,-1,-1,-1,-1,-1,-1,-1,-1,-1,-1,-1,-1,-1,-1,-1,-1,-1,-1,-1,-1,-1,-1,-1,-1,-1,-1,-1,-1,-1,-1,-1,-1,-1,-1,-1,-1,-1,-1,-1,-1,-1,-1,-1,-1,-1,-1,-1,-1,-1,-1,-1,-1,-1,-1,-1,-1,-1,-1,-1,-1,-1,-1,-1,-1,-1,-1,-1,-1,-1,-1,-1,-1,-1,-1],"loss_changes":[5.932089E3,1.0415238E3,6.032118E3,1.6342737E2,9.144941E2,4.6201637E1,8.3706934E2,1.4525269E1,1.849724E2,9.00206E0,2.099873E2,7.3032064E0,2.290971E1,1.512168E2,1.11260254E2,1.0628441E1,1.7980957E0,7.095032E-1,6.0034775E1,2.1249275E0,3.0833964E0,5.6069336E1,4.806482E1,1.3865194E0,4.0679984E0,4.24805E0,8.450371E0,9.237451E1,2.4168549E1,4.7E1,1.0850342E1,1.2918091E-1,4.041445E0,7.5927734E-2,2.6902313E0,1.1992264E-1,4.189949E-1,1.7392982E1,4.003961E1,4.1113663E-1,1.6459961E0,7.9255915E-1,2.9097333E0,1.2719513E1,2.5615692E1,2.8844482E1,2.9000366E1,2.2309875E-1,5.0249267E-1,1.1138643E0,1.5622525E0,1.7252026E0,1.5813794E0,2.019024E0,3.9813614E-1,1.5567413E1,6.896875E1,3.533699E0,6.1878357E0,3.833789E1,5.971283E0,9.8779297E-1,0E0,0E0,2.7721405E-2,1.6403618E0,2.6237886E0,0E0,1.2878418E-1,0E0,1.2491598E0,3.28331E-2,1.3713837E-1,1.9337654E-2,2.0049477E-1,1.4424358E1,7.2143755E0,3.8652817E1,1.1200672E1,6.888199E-2,4.0122223E-1,3.424635E-1,1.0062723E0,6.253985E-1,3.293457E-1,7.8307486E-1,8.599396E-1,4.4347367E0,8.5899315E0,1.4797989E1,2.2138031E1,2.582019E1,2.6497087E0,7.7327003E0,1.1899292E1,1.0368264E-1,2.1012211E-1,5.2896798E-2,2.1006918E-1,1.0201724E0,4.384695E-1,0E0,1.5648122E0,7.072092E-1,8.5924417E-1,2.6961923E-1,3.4426785E-1,1.029796E0,1.4922104E0,3.8999176E-1,6.909609E-2,3.2188644E0,7.583969E0,1.0256172E1,4.698828E1,1.7608614E0,3.8115673E0,5.5344543E0,7.7330256E-1,1.5188721E1,2.3359863E1,6.2687683E0,1.6343689E-1,1.1754761E0,9.523926E-1,0E0,0E0,0E0,0E0,0E0,0E0,0E0,0E0,0E0,0E0,0E0,0E0,0E0,0E0,0E0,0E0,0E0,0E0,0E0,0E0,0E0,0E0,0E0,0E0,0E0,0E0,0E0,0E0,0E0,0E0,0E0,0E0,0E0,0E0,0E0,0E0,0E0,0E0,0E0,0E0,0E0,0E0,0E0,0E0,0E0,0E0,0E0,0E0,0E0,0E0,0E0,0E0,0E0,0E0,0E0,0E0,0E0,0E0,0E0,0E0,0E0,0E0,0E0,0E0,0E0,0E0,0E0,0E0,0E0,0E0,0E0,0E0,0E0,0E0,0E0,0E0,0E0,0E0,0E0,0E0,0E0,0E0,0E0,0E0,0E0,0E0,0E0,0E0,0E0,0E0,0E0,0E0,0E0,0E0,0E0,0E0,0E0,0E0,0E0,0E0,0E0,0E0,0E0,0E0,0E0,0E0,0E0,0E0,0E0,0E0,0E0,0E0,0E0,0E0,0E0,0E0],"parents":[2147483647,0,0,1,1,2,2,3,3,4,4,5,5,6,6,7,7,8,8,9,9,10,10,11,11,12,12,13,13,14,14,15,15,16,16,17,17,18,18,19,19,20,20,21,21,22,22,23,23,24,24,25,25,26,26,27,27,28,28,29,29,30,30,31,31,32,32,33,33,34,34,35,35,36,36,37,37,38,38,39,39,40,40,41,41,42,42,43,43,44,44,45,45,46,46,47,47,48,48,49,49,50,50,51,51,52,52,53,53,54,54,55,55,56,56,57,57,58,58,59,59,60,60,61,61,64,64,65,65,66,66,68,68,70,70,71,71,72,72,73,73,74,74,75,75,76,76,77,77,78,78,79,79,80,80,81,81,82,82,83,83,84,84,85,85,86,86,87,87,88,88,89,89,90,90,91,91,92,92,93,93,94,94,95,95,96,96,97,97,98,98,99,99,100,100,102,102,103,103,104,104,105,105,106,106,107,107,108,108,109,109,110,110,111,111,112,112,113,113,114,114,115,115,116,116,117,117,118,118,119,119,120,120,121,121,122,122,123,123,124,124],"right_children":[2,4,6,8,10,12,14,16,18,20,22,24,26,28,30,32,34,36,38,40,42,44,46,48,50,52,54,56,58,60,62,64,66,68,70,72,74,76,78,80,82,84,86,88,90,92,94,96,98,100,102,104,106,108,110,112,114,116,118,120,122,124,-1,-1,126,128,130,-1,132,-1,134,136,138,140,142,144,146,148,150,152,154,156,158,160,162,164,166,168,170,172,174,176,178,180,182,184,186,188,190,192,194,-1,196,198,200,202,204,206,208,210,212,214,216,218,220,222,224,226,228,230,232,234,236,238,240,-1,-1,-1,-1,-1,-1,-1,-1,-1,-1,-1,-1,-1,-1,-1,-1,-1,-1,-1,-1,-1,-1,-1,-1,-1,-1,-1,-1,-1,-1,-1,-1,-1,-1,-1,-1,-1,-1,-1,-1,-1,-1,-1,-1,-1,-1,-1,-1,-1,-1,-1,-1,-1,-1,-1,-1,-1,-1,-1,-1,-1,-1,-1,-1,-1,-1,-1,-1,-1,-1,-1,-1,-1,-1,-1,-1,-1,-1,-1,-1,-1,-1,-1,-1,-1,-1,-1,-1,-1,-1,-1,-1,-1,-1,-1,-1,-1,-1,-1,-1,-1,-1,-1,-1,-1,-1,-1,-1,-1,-1,-1,-1,-1,-1,-1,-1],"split_conditions":[1.41175E2,2.09125E2,1E0,1.4525E1,1E0,5.43275E2,3.35675E2,2.5E-1,1E0,5.478E2,5.0169322E5,1E0,1E0,2.399895E2,4.9042502E2,1E0,1.1E0,1.36175E2,6.8975E1,1E0,1E0,9.05E0,8.2925E1,3.8695E2,2.7625E2,4.12575E2,4.9042502E2,1.02431E2,1.38004E6,2.2270074E2,2.06387E2,8.56E1,4.675E0,1.3E0,1E0,1E0,1E0,-6.9135123E-1,-8.035476E-1,2.525E1,2.94E1,9.97E1,7.64E1,1.5459636E6,-9.975591E-1,7.5E-1,1.8038221E6,2.74125E2,9.9735E2,2.97925E2,9.919E2,2.7585E2,2.5522335E6,2.7855E2,2.06387E2,8.607125E1,2.7405E2,1.76875E2,2.5E-1,1.0018E3,5.72875E2,1.0097E3,2.3843525E-1,-1.993839E-2,6.5E-1,1.19975006E2,5.7325E1,-2.0911302E-2,1E0,-2.0397278E-2,2.06387E2,2.76E2,1.415645E2,2.317815E2,1.3985875E2,2.1558675E2,9.67525E2,1.9977675E2,5.825E0,2.85275E2,2.738E2,3.29275E2,3.5115E2,6.936E2,1.016625E3,6.75925E2,1E-1,5E-2,2.79975E2,2.5E-1,2.738E2,4.55775E2,1.01745E3,1.0297E3,7.725E0,9.5597935E-1,9.789E2,9.487719E-1,2.7734998E2,1.6228601E2,5E-1,-2.5229195E-2,1.6489975E2,8.225E1,7.61E1,1.019E3,8.01675E2,9.919E2,3.35675E2,4.1525E1,1.008425E3,1.739E2,5.245E1,1.0204E3,2.5E-1,2.3775E1,2.64289E2,2.5696774E2,1.0112E3,1.00765E3,1.0991E2,4.2170762E5,5.74E1,9.938E2,5.1427406E5,-1.926103E-2,-1.768112E-2,-1.4613743E-2,-6.3499906E-3,-9.924585E-3,2.0843334E-3,-2.0772038E-2,-1.9393979E-2,-7.6652826E-3,-1.6997963E-2,-2.1469682E-2,-1.9018024E-2,-1.5761308E-2,-1.8570242E-2,-1.8016485E-2,-1.5836159E-2,-1.0688386E-2,-1.4683174E-2,4.1988377E-2,2.3029645E-3,9.997349E-2,4.5918585E-3,1.3849543E-1,3.8823575E-2,5.3782243E-2,1.802143E-2,-1.5677484E-2,-1.8416649E-2,-2.3564298E-2,-1.2558666E-2,-1.4888257E-2,-1.049845E-2,-9.452655E-3,-2.591782E-3,-7.972516E-3,5.4102764E-4,-1.4905057E-2,-4.8296745E-3,3.795453E-3,1.3213298E-2,1.0035416E-4,-9.834579E-3,1.8982382E-2,4.179542E-4,6.925588E-2,2.8763065E-2,1.4736693E-1,5.706416E-3,-7.222382E-3,5.393024E-2,5.1043358E-2,9.383715E-2,1.5757311E-2,8.535592E-2,6.533019E-2,1.7801864E-1,1.5960588E-1,1.1519616E-1,-2.7957592E-2,-1.4427078E-2,-3.0956546E-2,-1.2809481E-2,-1.4956421E-2,-3.3085864E-2,-1.0521747E-2,-4.9889437E-3,-9.082799E-4,-1.3381152E-2,5.6649203E-4,-1.7353801E-2,1.8723378E-2,5.193185E-3,-7.5920895E-3,-3.2787863E-2,2.720798E-3,-8.966331E-3,5.4778694E-3,1.4678652E-2,1.51298195E-2,2.3505941E-2,-2.1558782E-2,1.1620911E-2,1.7468456E-2,2.570184E-2,4.0625673E-2,2.8253157E-2,1.311746E-2,2.9755969E-2,3.5156284E-2,7.586032E-2,1.289627E-1,6.81973E-2,5.9649657E-2,1.3503014E-1,1.7356496E-1,1.010785E-1,5.162844E-2,1.8305462E-2,1.0264131E-1,4.83767E-2,1.2166741E-1,8.886322E-2,5.236833E-2,2.9252402E-3,2.0867448E-1,2.7084742E-2,1.8689007E-1,2.6644662E-1,1.567063E-1,5.9373178E-2,2.0235999E-1,1.22507356E-1,2.8581008E-1,2.1550916E-1,3.065801E-1,2.362674E-1],"split_indices":[9,3,33,9,33,3,9,13,33,3,8,34,34,23,9,33,9,3,9,34,34,9,9,3,9,9,9,23,2,23,23,3,9,3,33,34,34,36,36,9,9,11,21,2,36,16,2,26,14,3,14,26,2,26,23,23,26,9,16,17,3,14,0,0,9,3,3,0,33,0,23,26,23,23,23,23,14,23,0,26,26,3,3,3,14,3,20,20,26,16,26,3,14,14,0,36,14,36,26,23,16,0,23,11,21,18,3,14,9,11,14,9,11,14,16,11,23,23,14,18,23,8,11,17,8,0,0,0,0,0,0,0,0,0,0,0,0,0,0,0,0,0,0,0,0,0,0,0,0,0,0,0,0,0,0,0,0,0,0,0,0,0,0,0,0,0,0,0,0,0,0,0,0,0,0,0,0,0,0,0,0,0,0,0,0,0,0,0,0,0,0,0,0,0,0,0,0,0,0,0,0,0,0,0,0,0,0,0,0,0,0,0,0,0,0,0,0,0,0,0,0,0,0,0,0,0,0,0,0,0,0,0,0,0,0,0,0,0,0,0,0],"split_type":[0,0,0,0,0,0,0,0,0,0,0,0,0,0,0,0,0,0,0,0,0,0,0,0,0,0,0,0,0,0,0,0,0,0,0,0,0,0,0,0,0,0,0,0,0,0,0,0,0,0,0,0,0,0,0,0,0,0,0,0,0,0,0,0,0,0,0,0,0,0,0,0,0,0,0,0,0,0,0,0,0,0,0,0,0,0,0,0,0,0,0,0,0,0,0,0,0,0,0,0,0,0,0,0,0,0,0,0,0,0,0,0,0,0,0,0,0,0,0,0,0,0,0,0,0,0,0,0,0,0,0,0,0,0,0,0,0,0,0,0,0,0,0,0,0,0,0,0,0,0,0,0,0,0,0,0,0,0,0,0,0,0,0,0,0,0,0,0,0,0,0,0,0,0,0,0,0,0,0,0,0,0,0,0,0,0,0,0,0,0,0,0,0,0,0,0,0,0,0,0,0,0,0,0,0,0,0,0,0,0,0,0,0,0,0,0,0,0,0,0,0,0,0,0,0,0,0,0,0,0,0,0,0,0,0,0,0,0,0,0,0],"sum_hessian":[6.1635E4,5.3361E4,8.274E3,4.5392E4,7.969E3,4.824E3,3.45E3,4.085E4,4.542E3,4.442E3,3.527E3,2.233E3,2.591E3,2.171E3,1.279E3,4.428E3,3.6422E4,2.645E3,1.897E3,3.168E3,1.274E3,2.242E3,1.285E3,1.05E3,1.183E3,1.152E3,1.439E3,1.781E3,3.9E2,8.56E2,4.23E2,2.367E3,2.061E3,3.4757E4,1.665E3,1.606E3,1.039E3,1.382E3,5.15E2,1.562E3,1.606E3,5.57E2,7.17E2,9.16E2,1.326E3,9.08E2,3.77E2,5.2E2,5.3E2,8.28E2,3.55E2,6.68E2,4.84E2,1.083E3,3.56E2,2.34E2,1.547E3,1.32E2,2.58E2,7.07E2,1.49E2,3.54E2,6.9E1,1.299E3,1.068E3,1.329E3,7.32E2,3.0633E4,4.124E3,1.082E3,5.83E2,6.58E2,9.48E2,4.63E2,5.76E2,4.27E2,9.55E2,1.59E2,3.56E2,6.86E2,8.76E2,7.43E2,8.63E2,3.65E2,1.92E2,3.56E2,3.61E2,5.4E2,3.76E2,5.1E1,1.275E3,8.28E2,8E1,9.9E1,2.78E2,3.1E1,4.89E2,1.2E1,5.18E2,2.64E2,5.64E2,1.1E1,3.44E2,4.6E1,6.22E2,2.56E2,2.28E2,1.77E2,9.06E2,2.99E2,5.7E1,9.5E1,1.39E2,9.7E1,1.45E3,6.7E1,6.5E1,2.46E2,1.2E1,3.2E2,3.87E2,8.8E1,6.1E1,6.2E1,2.92E2,3.77E2,6.91E2,1.011E3,3.18E2,3.33E2,3.99E2,2.81E3,1.314E3,3.18E2,2.65E2,1.54E2,5.04E2,3.22E2,6.26E2,3.08E2,1.55E2,2.2E2,3.56E2,2.94E2,1.33E2,7E0,9.48E2,8.8E1,7.1E1,1.59E2,1.97E2,5.18E2,1.68E2,3.5E1,8.41E2,3.8E2,3.63E2,4.69E2,3.94E2,2.26E2,1.39E2,1.49E2,4.3E1,1.67E2,1.89E2,2.16E2,1.45E2,3.29E2,2.11E2,6.3E1,3.13E2,4.2E1,9E0,6.2E1,1.213E3,1.86E2,6.42E2,7.5E1,5E0,9.3E1,6E0,1.41E2,1.37E2,1.6E1,1.5E1,6E0,4.83E2,6E0,6E0,8.2E1,4.36E2,1.2E2,1.44E2,5.51E2,1.3E1,1.62E2,1.82E2,2.7E1,1.9E1,5.52E2,7E1,2.19E2,3.7E1,1.43E2,8.5E1,9E0,1.68E2,4.56E2,4.5E2,2.59E2,4E1,5E0,5.2E1,3.2E1,6.3E1,1.09E2,3E1,7.2E1,2.5E1,1.349E3,1.01E2,2.8E1,3.9E1,2E1,4.5E1,1.28E2,1.18E2,6E0,6E0,3.15E2,5E0,5.4E1,3.33E2,7.9E1,9E0,5.5E1,6E0,3.5E1,2.7E1,2.71E2,2.1E1],"tree_param":{"num_deleted":"0","num_feature":"48","num_nodes":"241","size_leaf_vector":"1"}},{"base_weights":[4.4030853E-4,-1.371006E-1,6.099569E-1,-1.773828E-1,3.752425E-2,3.2702792E-2,1.3979897E0,-1.8285029E-1,-3.6830942E-3,-1.3332243E-1,2.642843E-1,-4.5782607E-2,1.3238913E-1,1.0532571E0,2.0395186E0,-1.8691027E-1,-1.4802417E-1,-1.3608396E-1,1.5252401E-1,-1.525042E-1,-7.845909E-2,1.8823116E-1,5.513245E-1,-2.213163E-3,-9.523784E-2,2.0640339E-1,3.9883483E-2,8.102283E-1,1.2882665E0,2.215773E0,1.3455441E0,-1.8734507E-1,-1.4101702E-1,-1.7930624E-1,-1.0505416E-1,-1.4294524E-1,-9.314137E-2,5.840354E-2,2.6640597E-1,-1.6063273E-1,-1.3577671E-1,-5.0236057E-2,-1.08403064E-1,9.4908185E-2,3.737439E-1,6.323221E-1,3.256042E-1,-3.4355957E-2,4.5431323E-2,-1.3834359E-1,-7.839944E-2,1.4661354E-1,2.7681288E-1,9.411691E-3,1.4476246E-1,1.1744442E0,7.112936E-1,1.1784945E0,1.615161E0,1.9669406E0,2.4703317E0,9.4848144E-1,1.5126946E0,-1.879997E-2,-1.7882949E-1,-1.7369283E-2,-9.5472984E-2,-1.8261729E-1,-1.6434571E-1,-8.140368E-2,-1.4397725E-1,-1.714297E-1,-1.3531546E-1,-6.404496E-2,-1.3985635E-1,4.4153165E-2,5.997426E-2,5.4513055E-1,1.9877437E-1,-1.5205553E-1,-1.7112827E-1,-1.18314125E-1,-1.5679166E-1,-8.0468364E-2,-1.4263126E-2,-1.3038553E-1,-8.897522E-2,2.2257435E-1,3.396916E-2,6.875232E-1,2.3751126E-1,5.139866E-1,9.603829E-1,5.650349E-1,1.9308676E-1,-4.8349246E-2,8.1416875E-2,-1.0590251E-1,5.36877E-2,-2.4761941E-2,-1.3477905E-1,-2.202645E-1,-7.469089E-2,1.8404545E-1,8.754876E-2,3.0861115E-1,1.8654759E-1,4.3714456E-2,-4.607365E-2,1.1177559E-1,2.0236623E-1,1.5682733E0,9.229744E-1,6.075071E-1,1.0233932E0,1.4079494E0,1.0092719E0,7.9190284E-1,1.6853598E0,2.110513E0,1.4832195E0,1.7270312E0,2.5248606E0,3.4615703E-2,9.950694E-1,1.3357607E0,1.7412204E0,-1.859865E-2,-1.6324265E-2,-1.2270808E-2,-3.7233029E-3,-1.9153338E-2,-1.800329E-2,-1.6558405E-2,-1.1448371E-2,-1.5495661E-2,-5.964296E-3,-1.6130101E-2,-8.939012E-3,-1.3124987E-2,-1.7918957E-2,-1.603744E-2,-1.2472997E-2,-7.8117955E-3,2.5945453E-3,-1.5201424E-2,-6.777165E-3,2.4656644E-3,3.9842363E-2,2.7776847E-2,1.04778826E-1,1.0590707E-2,3.214207E-2,-1.6573448E-2,-1.4539162E-2,-1.8847693E-2,-1.673881E-2,-9.28565E-3,-1.37273995E-2,-1.7699188E-2,-1.4485574E-2,-2.139904E-3,-9.831472E-3,-4.097746E-3,6.3219103E-3,-1.3672002E-2,-6.7943237E-3,-6.162988E-3,-1.175241E-2,3.365418E-2,6.9219396E-3,1.070314E-3,2.207575E-2,1.0777562E-1,4.647117E-2,1.14140905E-1,2.2373538E-2,6.394722E-2,4.0028017E-2,4.9871333E-2,1.1004341E-1,1.7003825E-2,8.532926E-2,2.1933852E-2,-3.6328267E-2,-1.7947367E-3,-7.668344E-3,2.3617663E-3,1.4877426E-2,-4.773742E-3,-2.6019482E-2,7.4223704E-3,1.139071E-3,-1.4684412E-2,-1.1787763E-2,-8.300909E-3,-2.4988545E-2,-8.667441E-3,-4.7768597E-3,1.3877925E-2,2.211847E-2,1.1750884E-2,-1.214208E-2,-1.07049085E-2,3.1503875E-2,1.1696177E-2,2.4689078E-2,5.2925483E-3,-1.445545E-2,-2.1123935E-2,-3.1355103E-3,-3.6746531E-3,1.1865719E-2,2.2491653E-2,1.5148376E-2,1.8158682E-1,7.509385E-2,1.6665795E-1,7.835864E-2,5.003493E-2,8.191283E-2,9.075944E-2,1.5604374E-1,1.227498E-1,1.6202156E-1,1.0410949E-1,-2.8677852E-4,1.2349697E-1,4.4216085E-2,1.5040581E-1,1.9614325E-1,1.8502267E-1,2.4133325E-1,1.8479583E-1,1.2045022E-1,1.949707E-1,1.44258095E-2,2.598172E-1,2.0901635E-1,1.3389616E-1,9.0411834E-2,3.377113E-2,1.3704811E-1,1.23818256E-1,1.8819311E-1],"categories":[],"categories_nodes":[],"categories_segments":[],"categories_sizes":[],"default_left":[0,0,0,0,0,0,0,0,0,0,0,0,0,0,0,0,0,0,0,0,0,0,0,0,0,0,0,0,0,0,0,0,0,0,0,0,0,0,0,0,0,0,0,0,0,0,0,0,0,0,0,0,0,0,0,0,0,0,0,0,0,0,0,0,0,0,0,0,0,0,0,0,0,0,0,0,0,0,0,0,0,0,0,0,0,0,0,0,0,0,0,0,0,0,0,0,0,0,0,0,0,0,0,0,0,0,0,0,0,0,0,0,0,0,0,0,0,0,0,0,0,0,0,0,0,0,0,0,0,0,0,0,0,0,0,0,0,0,0,0,0,0,0,0,0,0,0,0,0,0,0,0,0,0,0,0,0,0,0,0,0,0,0,0,0,0,0,0,0,0,0,0,0,0,0,0,0,0,0,0,0,0,0,0,0,0,0,0,0,0,0,0,0,0,0,0,0,0,0,0,0,0,0,0,0,0,0,0,0,0,0,0,0,0,0,0,0,0,0,0,0,0,0,0,0,0,0,0,0,0,0,0,0,0,0,0,0,0,0,0,0,0,0,0,0],"id":7,"left_children":[1,3,5,7,9,11,13,15,17,19,21,23,25,27,29,31,33,35,37,39,41,43,45,47,49,51,53,55,57,59,61,63,65,67,69,71,73,75,77,79,81,83,85,87,89,91,93,95,97,99,101,103,105,107,109,111,113,115,117,119,121,123,125,-1,127,-1,129,131,133,135,137,139,141,143,145,147,-1,149,151,153,155,157,159,161,163,165,167,169,171,173,175,177,179,181,183,185,187,189,191,-1,193,195,197,199,201,203,205,207,209,211,213,215,217,219,221,223,225,227,229,231,233,235,237,-1,239,241,243,-1,-1,-1,-1,-1,-1,-1,-1,-1,-1,-1,-1,-1,-1,-1,-1,-1,-1,-1,-1,-1,-1,-1,-1,-1,-1,-1,-1,-1,-1,-1,-1,-1,-1,-1,-1,-1,-1,-1,-1,-1,-1,-1,-1,-1,-1,-1,-1,-1,-1,-1,-1,-1,-1,-1,-1,-1,-1,-1,-1,-1,-1,-1,-1,-1,-1,-1,-1,-1,-1,-1,-1,-1,-1,-1,-1,-1,-1,-1,-1,-1,-1,-1,-1,-1,-1,-1,-1,-1,-1,-1,-1,-1,-1,-1,-1,-1,-1,-1,-1,-1,-1,-1,-1,-1,-1,-1,-1,-1,-1,-1,-1,-1,-1,-1,-1,-1,-1],"loss_changes":[5.167243E3,3.5375323E2,5.1621055E3,3.8807007E1,3.6524857E2,5.1260574E1,1.058959E3,5.5738525E0,2.5831839E1,5.64666E0,8.833084E1,7.8990545E0,1.9751457E1,1.7732324E2,2.0202051E2,6.8151855E-1,5.547455E0,1.858635E-1,6.126211E0,5.1976013E-1,1.1734829E0,5.5434097E1,1.5297943E1,2.9878433E0,1.2354078E0,6.7076797E0,4.102109E0,5.458429E1,5.5008545E1,7.9703125E1,2.1263489E1,1.6223145E-1,4.8493624E-1,8.862305E-2,1.5964813E0,1.0307217E-1,1.215297E-1,2.4035192E0,4.773947E0,2.1479034E-1,4.618187E-1,7.818843E-1,2.7709913E-1,1.6586866E1,4.5661453E1,2.3692001E1,7.061596E0,1.8912863E0,9.877683E-1,1.5398407E-1,6.343498E-1,1.9051647E0,2.0520897E0,1.8977014E0,5.2652884E-1,3.0937317E1,3.8637024E1,4.482422E1,2.1550781E1,4.4094727E1,2.2228027E1,2.5738983E0,7.3378906E0,0E0,2.517624E-1,0E0,2.2225356E-1,1.0498047E-2,8.459091E-3,1.7337728E0,6.0876656E-1,1.3584375E-2,1.0281181E-1,7.927933E-2,2.1248043E-2,2.117545E0,0E0,6.4285383E0,2.3578234E0,1.1090469E-1,4.598999E-2,3.3429718E-1,1.16856575E-1,4.1007757E-1,6.85653E-1,1.15305424E-1,2.7536273E-1,1.2018681E1,6.2773485E0,2.767044E1,9.071175E0,6.307556E0,1.0054993E1,8.963774E0,2.226717E0,8.944926E-1,4.8703003E-1,3.5553035E-1,6.471386E-1,0E0,7.812405E-2,1.0529184E-1,3.8526678E-1,8.619957E-1,2.1366599E0,1.4817772E0,7.8573513E-1,1.0758877E0,9.1958725E-1,1.9446492E-1,8.5259914E-2,2.4134735E1,1.9631302E1,2.0271423E1,1.7302643E1,1.7277954E1,2.2195251E1,4.5675945E0,1.5268921E1,3.667871E1,1.3937897E1,1.6636124E1,1.3977051E1,0E0,1.7920456E0,4.353897E0,4.818878E0,0E0,0E0,0E0,0E0,0E0,0E0,0E0,0E0,0E0,0E0,0E0,0E0,0E0,0E0,0E0,0E0,0E0,0E0,0E0,0E0,0E0,0E0,0E0,0E0,0E0,0E0,0E0,0E0,0E0,0E0,0E0,0E0,0E0,0E0,0E0,0E0,0E0,0E0,0E0,0E0,0E0,0E0,0E0,0E0,0E0,0E0,0E0,0E0,0E0,0E0,0E0,0E0,0E0,0E0,0E0,0E0,0E0,0E0,0E0,0E0,0E0,0E0,0E0,0E0,0E0,0E0,0E0,0E0,0E0,0E0,0E0,0E0,0E0,0E0,0E0,0E0,0E0,0E0,0E0,0E0,0E0,0E0,0E0,0E0,0E0,0E0,0E0,0E0,0E0,0E0,0E0,0E0,0E0,0E0,0E0,0E0,0E0,0E0,0E0,0E0,0E0,0E0,0E0,0E0,0E0,0E0,0E0,0E0,0E0,0E0,0E0,0E0,0E0,0E0,0E0,0E0,0E0,0E0],"parents":[2147483647,0,0,1,1,2,2,3,3,4,4,5,5,6,6,7,7,8,8,9,9,10,10,11,11,12,12,13,13,14,14,15,15,16,16,17,17,18,18,19,19,20,20,21,21,22,22,23,23,24,24,25,25,26,26,27,27,28,28,29,29,30,30,31,31,32,32,33,33,34,34,35,35,36,36,37,37,38,38,39,39,40,40,41,41,42,42,43,43,44,44,45,45,46,46,47,47,48,48,49,49,50,50,51,51,52,52,53,53,54,54,55,55,56,56,57,57,58,58,59,59,